2124 128
524 0.15248 0.0227396 -0.205405 -0.252693 0.213595 0.313459 -0.0956796 -0.139473 0.198451 -0.0869618 -0.346107 -0.174535 -0.167353 0.00582958 0.0269975 0.0135637 0.100881 -0.0205209 0.0587768 0.0866215 0.11329 -0.163268 0.283947 -0.238941 -0.015694 -0.0486894 -0.16721 -0.147975 -0.0952389 -0.201408 -0.337597 -0.026603 -0.0858734 0.145653 -0.0446587 0.0974496 -0.154943 0.65785 0.306884 0.54937 -0.419885 -0.190512 -0.00719653 0.287105 0.409486 -0.0160192 -0.0627203 -0.0478819 -0.16406 -0.2394 -0.00982389 0.0456386 0.113581 0.244118 0.0420765 0.190783 -0.080188 0.238886 -0.111265 -0.27662 0.704111 0.0338224 0.12494 0.315439 -0.707179 0.060151 0.0706002 0.326203 0.227491 0.180915 0.470142 -0.344465 0.632275 -0.361092 -0.0865825 0.513155 0.104534 -0.297278 0.132292 0.227599 0.651978 -0.221921 -0.461337 0.51122 0.669758 -0.0631753 -0.15639 -0.659627 -0.474764 0.146706 -0.130207 -0.0686261 0.424655 -0.112534 -0.343112 0.109226 -0.0530193 1.15974 0.0432032 -0.113504 -0.675118 -0.191683 -0.131277 -0.116118 -0.439526 1.19458 0.425549 0.143431 0.0195253 -0.0446177 -0.451329 -0.123772 0.33039 0.32822 0.135583 0.229269 0.322948 0.201639 0.066141 -0.0365255 -0.191873 -0.431412 -0.177682 -0.0626802 0.469102 0.0361496 -0.3075 0.126262
2920 -0.0137077 0.0092108 -0.271859 -0.0825702 0.253354 0.142612 -0.0946645 -0.0700324 0.0660669 -0.0283919 -0.178376 -0.154579 -0.0834401 0.0489222 0.00135603 -0.00224755 0.0931802 -0.0196735 0.011173 -0.113746 0.138195 -0.192799 0.262953 -0.234835 -0.0245422 -0.00836743 -0.171519 -0.066049 0.124454 -0.0180886 -0.524854 0.094078 -0.0522192 0.123124 -0.124032 0.0187357 -0.154029 0.62882 0.202506 0.624045 -0.312536 0.0340506 0.0694546 0.282472 0.69573 -0.0160764 -0.0751757 0.0730187 -0.195119 -0.151067 -0.08879 0.174452 0.00474487 0.274308 0.0731407 0.204082 -0.0694703 0.129391 -0.0674548 -0.26472 0.94243 0.0639822 0.162019 0.499128 -0.930132 -0.144922 0.0313348 0.463076 0.341321 0.0660003 0.454825 -0.248296 0.547981 -0.239607 -0.214133 0.272074 0.0989451 -0.24251 0.107885 0.129486 0.577346 -0.161379 -0.614911 0.581263 0.699859 -0.0831261 -0.140777 -0.660255 -0.30811 0.280192 -0.254262 -0.0689565 0.42272 0.0622965 -0.453127 0.0547153 -0.0389101 1.38662 -0.0131533 -0.0453868 -0.489845 -0.190438 -0.103097 -0.020412 -0.449124 1.07444 0.629827 -0.00143576 -0.00450551 0.0048208 -0.443972 -0.115896 0.231266 0.170483 0.193829 0.214766 0.493941 0.238818 0.143747 -0.0261248 -0.281271 -0.353854 -0.179329 -0.0681566 0.519278 -0.0429643 -0.520703 0.174603
521 -0.055183 0.0917982 -0.426389 -0.31358 0.261259 0.306125 -0.130443 -0.14327 0.175249 0.154799 -0.186132 -0.241732 -0.121376 0.0212909 -0.138371 -0.0647966 0.0860855 -0.0408693 -0.0144078 -0.137564 0.0870555 -0.246046 0.211648 -0.196018 0.0873016 0.163137 -0.221799 0.0371559 0.22151 -0.0619232 -0.657101 0.12171 0.11841 0.303441 -0.227021 -0.0729074 -0.175219 0.58134 0.165205 0.572799 -0.290348 -0.0571246 0.149908 0.327634 0.672281 0.0714999 0.0130113 0.0108315 -0.176582 -0.015434 -0.10846 0.179831 -0.000564915 0.400612 -0.0422598 0.156219 -0.172744 0.0747614 -0.19378 -0.273223 0.62923 0.0810828 -0.02 0.242702 -0.761259 -0.230871 0.0717186 0.349035 0.296417 -0.0206881 0.412167 -0.200515 0.482456 -0.2243 -0.110774 0.270647 0.0556616 -0.171659 0.104565 0.00542623 0.622268 -0.0749395 -0.612738 0.492126 0.704933 -0.119231 -0.181681 -0.683761 -0.367438 0.3679 -0.0851223 -0.0151493 0.339864 0.050196 -0.326319 -0.024472 -0.0238194 1.20427 0.0566434 -0.0874173 -0.622025 -0.16956 -0.122893 0.0527886 -0.221117 0.812781 0.522823 -0.00362561 -0.0142988 0.0609689 -0.307345 -0.132849 0.366632 0.233263 0.070755 0.15544 0.462049 0.253978 0.229705 0.0165898 -0.222068 -0.438826 -0.0871476 -0.0642316 0.518149 0.0151625 -0.451015 0.157056
2993 -0.0988725 0.0932093 -0.435493 -0.34905 0.333596 0.205761 -0.0354324 -0.0997567 0.165005 0.340431 -0.152638 -0.279983 -0.0983036 0.0453011 -0.296208 -0.00218961 0.0929454 -0.0701069 0.00146737 -0.0913932 0.0765661 -0.353577 0.197749 -0.195064 0.19162 0.246789 -0.294163 0.231537 0.271006 -0.0703062 -0.781853 0.181219 0.194218 0.431242 -0.382603 -0.152344 -0.0910029 0.522483 0.175053 0.664108 -0.15796 -0.0697937 0.285076 0.447851 0.759295 0.0530898 -0.000384134 -0.0357559 -0.238927 0.114991 -0.129474 0.298042 -0.104084 0.353028 -0.169107 0.0834207 -0.253143 0.0914751 -0.177345 -0.389026 0.552834 0.155559 -0.120116 0.266065 -0.813079 -0.224778 0.109035 0.474421 0.339506 0.0800842 0.432192 -0.263372 0.547112 -0.273892 0.171877 0.365425 -0.0481206 -0.153008 0.195917 0.141216 0.765912 -0.109709 -0.570329 0.451739 0.702402 -0.110376 -0.267694 -0.633333 -0.428401 0.44263 -0.0921995 0.0404346 0.275016 0.109466 -0.281282 -0.138847 -0.0355289 1.42226 0.110169 -0.0859206 -0.736918 -0.137213 -0.000123918 0.111532 -0.163026 0.800881 0.788663 -0.0237461 -0.0473723 0.142812 -0.169338 -0.235136 0.474456 0.358829 -0.0405341 0.133159 0.557589 0.349023 0.319184 0.0515997 -0.248332 -0.516821 -0.152023 0.0109987 0.757628 0.120495 -0.359954 0.186596
1022 -0.172167 -0.0251963 -0.204717 -0.229314 0.181494 0.262632 0.0888545 -0.115938 0.158814 0.348461 -0.0229589 -0.136589 -0.123358 0.024967 -0.21578 -0.0786893 0.144492 -0.0347901 0.0373879 -0.162966 -0.0269365 -0.293088 0.126292 -0.178173 0.195617 0.152577 -0.206507 0.211305 0.296572 0.0629806 -0.637936 0.08198 0.250056 0.356094 -0.380803 -0.233813 -0.222187 0.622426 0.135238 0.762571 -0.172511 -0.0561903 0.472843 0.483744 0.837813 0.0418727 0.0451025 -0.0477825 -0.217737 0.114681 -0.185083 0.240049 0.0575909 0.49252 -0.097742 0.220008 -0.125228 -0.00169646 -0.127476 -0.20066 0.596473 0.0933951 -0.0985653 0.21988 -0.923616 -0.378119 0.0869908 0.414009 0.195354 0.0917603 0.458989 -0.233707 0.466698 -0.232669 0.238501 0.410652 0.0499561 -0.18471 0.155614 0.189211 0.715337 -0.0423657 -0.50539 0.408969 0.739827 -0.148977 -0.190986 -0.627373 -0.301885 0.463399 0.0660293 -0.00679035 0.3844 0.0584606 -0.300319 -0.0744023 0.137885 1.28346 0.098663 0.0161306 -0.541112 -0.111755 -0.0193738 0.241724 0.0203472 0.547423 0.544589 -0.0812749 0.00164116 0.0637814 -0.023701 -0.131341 0.405031 0.436705 -0.0658311 0.0828156 0.53425 0.278436 0.260855 0.0493901 -0.167149 -0.571758 0.010004 0.0866509 1.06568 0.136334 -0.571903 0.29037
2727 0.00851155 -0.156426 0.10851 -0.0805165 0.0896386 -0.00161433 0.178007 0.0624722 0.161217 0.067877 -0.0854531 -0.116164 -0.0971082 -0.116393 -0.105593 -0.109065 -0.00618302 0.0547731 0.0841299 -0.0846696 0.00492202 -0.10528 0.20942 -0.149959 0.157556 0.215179 -0.160681 0.0690856 0.255418 0.0876624 -0.559983 0.139497 0.248629 0.242558 -0.450151 -0.21527 -0.0481069 0.177179 -0.0344204 0.288249 -0.138172 0.0880924 0.238458 0.565227 0.740519 0.028439 0.109434 0.0513929 -0.103453 0.135782 -0.174637 0.241969 0.0500807 0.342512 -0.0469987 0.180198 -0.0441492 0.0113064 -0.121838 -0.205807 0.418017 0.0901956 -0.171443 0.239114 -1.07554 -0.500077 0.119074 0.271796 0.271372 0.208013 0.473936 -0.0567663 0.622189 -0.380239 0.398971 0.804373 -0.123748 -0.313674 0.172724 0.167778 0.514523 0.225286 -0.469754 0.301421 0.843017 -0.124582 -0.28709 -0.861133 -0.34686 0.499619 -0.318128 0.061142 0.191665 0.0932243 -0.433047 -0.0151127 0.0390984 1.10171 -0.121152 0.109255 -0.339896 -0.110845 -0.0596691 0.180197 -0.472346 0.752928 0.409945 -0.14493 -0.0418558 0.0569232 -0.0461714 -0.203664 0.330881 0.397079 -0.126194 -0.0440312 0.410473 0.287898 0.565882 0.0954892 -0.267471 -0.310627 0.066991 0.120742 0.700932 -0.116723 -0.397019 0.311876
1033 -0.113723 -0.0361674 -0.128206 0.0301157 0.11254 0.042478 0.0554079 -0.067889 0.0990496 0.175917 -0.00108493 -0.0782913 -0.243678 0.0193499 -0.128863 -0.197822 0.00531153 0.0721443 0.181631 -0.0735258 0.00995782 -0.124861 0.149347 -0.177684 0.246918 0.173423 -0.123399 0.0695419 0.189053 0.173687 -0.314655 0.0186118 0.233686 0.159584 -0.230537 -0.0926814 -0.191374 0.154367 -0.0280404 0.347769 -0.143796 0.0807847 0.359938 0.568668 0.617267 0.0486032 -0.0214832 0.0255023 -0.198706 0.0658743 -0.177778 0.187276 0.184694 0.524848 0.0306698 0.323077 0.0351287 -0.0949644 0.179787 -0.0966982 0.370326 0.0744627 0.0138861 0.268367 -0.932966 -0.47166 0.146333 0.16424 0.274517 0.212298 0.440935 -0.329725 0.500934 -0.330567 0.455093 0.74651 0.00943698 -0.279321 0.313757 0.303031 0.788774 0.0369112 -0.519447 0.541239 1.04758 -0.189892 -0.338827 -1.01883 -0.467322 0.387253 -0.0392076 -0.0750288 0.326036 0.122637 -0.336171 0.00553935 0.0910078 1.13798 0.154816 0.0822516 -0.458414 -0.271669 -0.00763639 0.155248 -0.173309 0.584682 0.291542 -0.101998 0.0295375 0.126951 0.0172979 -0.154096 0.334748 0.398735 -0.0106388 0.101028 0.367423 0.192617 0.38624 0.0429538 -0.106371 -0.294286 0.0357865 0.0817251 0.63048 -0.154198 -0.296595 0.182299
3205 -0.118676 -0.0465166 -0.116487 -0.00423256 0.109641 -0.00509408 0.0591218 -0.0612125 0.115674 0.155167 -0.0461266 -0.0635453 -0.290163 0.0454739 -0.200486 -0.23258 -0.0225758 0.109691 0.144308 -0.0803104 -0.00893548 -0.123373 0.126857 -0.154169 0.254483 0.15229 -0.12337 0.0524627 0.131174 0.119992 -0.282902 0.0380502 0.225855 0.124193 -0.139622 -0.103628 -0.235845 0.176425 -0.0327919 0.380016 -0.178975 0.0776502 0.357593 0.568258 0.685069 0.011662 -0.0548156 -0.00267331 -0.201209 0.112254 -0.209889 0.16241 0.20139 0.557675 0.0407654 0.342356 0.0428282 -0.138628 0.178537 -0.0799908 0.338414 0.0756863 0.0330363 0.224157 -0.852086 -0.460086 0.144551 0.107269 0.277827 0.166587 0.437029 -0.371838 0.452461 -0.303004 0.407777 0.679425 0.0463519 -0.255519 0.330475 0.288406 0.769893 0.0282896 -0.46873 0.518568 1.0621 -0.188685 -0.295224 -1.05254 -0.490004 0.345673 0.0112632 -0.100208 0.310807 0.133778 -0.275906 -0.0177174 0.0784891 1.06229 0.194299 0.0240078 -0.471675 -0.236396 -0.0395147 0.139606 -0.154015 0.544979 0.259096 -0.10828 0.034231 0.148963 -0.0136507 -0.124978 0.331977 0.383881 -0.0280308 0.0797816 0.360714 0.137009 0.362911 0.0400231 -0.088434 -0.318888 0.0274612 -0.011993 0.538737 -0.125421 -0.281161 0.156707
866 -0.119777 0.0225475 -0.142855 0.0145354 0.177579 0.00303973 0.132963 -0.0181314 0.0517796 0.166023 -0.0460829 -0.0378294 -0.333609 0.120658 -0.17364 -0.293056 0.0369726 0.142801 0.202056 -0.107035 -0.0557917 -0.12234 0.191218 -0.227538 0.192739 0.016637 -0.0514925 0.104702 0.109927 0.17584 -0.236994 -0.0434385 0.222462 0.115309 -0.147439 -0.101511 -0.277922 0.175567 -0.0149535 0.446982 -0.159459 0.109278 0.430307 0.6265 0.646746 -0.00745166 -0.052164 0.00154838 -0.171474 0.149997 -0.254507 0.169789 0.233011 0.595346 0.121685 0.412141 0.0725247 -0.112086 0.195818 -0.056736 0.305479 -0.00934606 0.0172453 0.299587 -0.89109 -0.568028 0.0820848 0.108594 0.317135 0.106046 0.530399 -0.442009 0.35766 -0.3181 0.434004 0.707496 0.102196 -0.252522 0.26014 0.235059 0.80208 0.0232914 -0.485593 0.505637 1.08825 -0.198551 -0.244703 -1.08586 -0.456418 0.356632 0.0676391 -0.190178 0.40194 0.137968 -0.297947 0.0360358 0.113059 1.0804 0.252194 0.0616312 -0.554536 -0.332897 -0.0341555 0.243177 -0.111451 0.536092 0.273973 -0.0899848 0.0931277 0.174776 -0.0170971 -0.136541 0.297921 0.334952 -0.0201581 0.174394 0.415689 0.174415 0.340931 0.097485 -0.104308 -0.407665 0.102775 -0.0371293 0.479831 -0.162115 -0.284703 0.163749
868 -0.107939 -0.0176312 -0.00516697 0.128139 0.111401 -0.0217187 0.0903951 -0.0412273 -0.00432387 0.198922 -0.0456335 -0.0284853 -0.171271 0.0483658 -0.0891343 -0.192211 0.0160182 0.0792533 0.256244 -0.04235 0.0621959 -0.146691 0.245804 -0.221159 0.280963 0.0312038 -0.0615893 0.104932 0.0507073 0.180535 -0.209449 -0.0619128 0.147135 0.0702825 -0.212239 -0.100805 -0.174743 0.141202 -0.0263248 0.391038 -0.131748 0.0731284 0.408945 0.592293 0.62309 0.0217729 -0.00409067 0.115275 -0.2176 0.180428 -0.249696 0.189818 0.173773 0.514628 0.075871 0.349008 0.112702 -0.0659832 0.139143 -0.082657 0.355296 0.0243244 0.00560126 0.209965 -0.767971 -0.409825 0.0695012 0.127912 0.324197 0.150498 0.493972 -0.371371 0.462941 -0.407401 0.378928 0.627085 0.0490137 -0.271294 0.186227 0.249587 0.748038 0.0473512 -0.405859 0.418793 0.860743 -0.166025 -0.240374 -0.954681 -0.406648 0.361317 0.0361476 -0.129446 0.32316 0.153404 -0.230978 0.016079 0.0779779 1.11854 0.23869 0.0229279 -0.465229 -0.229292 -0.106809 0.210921 -0.120327 0.584407 0.214996 -0.10563 0.0295994 0.132296 -0.0317964 -0.180288 0.290181 0.304413 -0.107618 0.0971734 0.411491 0.260281 0.333496 0.0296347 -0.194851 -0.373578 0.0890878 0.0571403 0.507949 -0.132334 -0.246372 0.208655
2782 -0.107657 -0.00864856 0.125954 0.0754333 0.127023 -0.279442 0.172415 0.00562775 -0.165307 0.21192 -0.128263 0.0666319 -0.229374 0.191892 -0.18746 -0.277044 0.01829 0.142518 0.303527 -0.00216605 0.086639 -0.205259 0.351145 -0.248076 0.284895 -0.128055 -0.0487253 0.202816 -0.0922762 0.149979 -0.120316 -0.195193 0.118882 -0.0175338 -0.186833 -0.1199 -0.219966 0.195341 0.0139623 0.459199 -0.07776 0.144218 0.4958 0.672509 0.589094 -0.0465054 -0.029832 0.119723 -0.260364 0.248287 -0.35682 0.188625 0.161827 0.493766 0.208877 0.407368 0.208698 -0.0191854 0.265076 -0.0957287 0.405435 -0.0779348 0.0452985 0.290327 -0.640293 -0.449422 0.0159688 0.150304 0.406945 0.128023 0.609863 -0.555705 0.447131 -0.438412 0.362281 0.593723 0.0709366 -0.28633 0.157743 0.276938 0.73352 0.0122224 -0.392701 0.516748 0.989611 -0.210451 -0.242215 -1.06457 -0.458768 0.319423 0.179039 -0.288963 0.418775 0.165555 -0.250082 0.0735306 0.170414 1.30343 0.451159 -0.0180052 -0.720361 -0.363864 -0.163015 0.365636 -0.0451054 0.635074 0.224816 -0.092248 0.119907 0.0816665 -0.186239 -0.225999 0.255094 0.293069 -0.158663 0.120018 0.49611 0.227467 0.208138 0.0785819 -0.272684 -0.516384 0.139506 -0.0786365 0.25943 -0.118279 -0.131986 0.142245
261 -0.0551518 0.124961 -0.153443 0.0256952 0.0887469 -0.0436647 -0.149611 -0.15848 0.0848606 -0.108415 -0.0821269 -0.0284097 -0.0591294 0.0140894 -0.0595052 -0.111947 -0.100815 0.166094 0.00227843 -0.128099 0.214989 -0.215959 0.165917 -0.0718365 0.182669 -0.113609 -0.34149 0.0451922 0.442082 0.215075 -0.168877 0.110712 0.130921 0.466077 -0.258498 0.0725552 -0.325929 0.12367 -0.00996923 0.463973 -0.317188 -0.106156 0.312506 0.300061 0.491571 -0.0881368 -0.0131817 0.39462 -0.404047 0.075696 -0.161396 0.00226086 0.017903 0.067462 0.174413 -0.0454941 -0.0819512 0.198674 0.140664 0.12858 0.209237 0.019356 0.133024 0.315607 -0.29448 -0.179606 -0.114297 -0.0858672 0.0580443 -0.102297 -0.00765713 -0.0480457 -0.0258817 -0.00794824 0.0787323 0.0199849 0.153769 -0.102256 0.183069 0.0314144 0.489337 -0.0699877 -0.331815 0.48038 0.558644 -0.108975 -0.122371 -0.42734 -0.522924 0.173792 -0.0445743 -0.325012 0.282636 0.181101 -0.236861 -0.124337 0.0132399 0.958959 0.769119 -0.073387 -1.2846 -0.71376 -0.0284402 0.00928159 -0.330554 1.70952 0.463046 0.033808 0.0517674 0.280181 -0.434005 -0.170371 0.35318 0.245236 0.105585 0.509587 0.336319 0.408563 0.380057 -0.0415288 -0.426367 -0.607776 -0.169948 0.025824 0.610771 -0.0204933 -0.338174 0.336733
2751 -0.0467716 0.0839929 -0.124156 0.072617 0.0680971 -0.0587974 -0.110253 -0.109521 0.0220247 -0.106847 -0.071537 -0.000468239 -0.0775461 0.0214503 -0.120131 -0.138546 -0.109486 0.166768 -0.0391754 -0.052851 0.18281 -0.155482 0.105592 -0.0351886 0.214345 -0.0615107 -0.290237 0.0163231 0.390516 0.204194 -0.124227 0.119127 0.0833217 0.404794 -0.188376 0.0367773 -0.263287 0.122839 0.000480143 0.392805 -0.282757 -0.0556828 0.295157 0.275743 0.453314 -0.094351 -0.0252366 0.286017 -0.355002 0.05199 -0.145764 -0.0397336 0.0182974 0.0448926 0.161148 -0.0204505 -0.0493037 0.160293 0.198353 0.100984 0.200818 0.0410418 0.144722 0.32201 -0.234189 -0.148642 -0.0745286 -0.091784 0.0966027 0.0125039 -0.0212988 -0.127149 0.0444578 -0.0277509 0.105202 0.0805144 0.0729261 -0.0863946 0.192899 0.0523578 0.408762 -0.0475673 -0.340152 0.475864 0.526911 -0.123777 -0.190032 -0.443091 -0.481679 0.140816 -0.0402458 -0.266855 0.232091 0.153108 -0.183056 -0.11235 0.0128992 0.866029 0.715452 -0.122018 -1.12617 -0.649431 -0.0013306 -0.0390096 -0.301207 1.46579 0.394009 0.0649473 0.0436779 0.258054 -0.339303 -0.159574 0.329149 0.23765 0.09535 0.50171 0.29066 0.400355 0.365211 -0.0508235 -0.350813 -0.548683 -0.192051 0.0353875 0.563411 0.00214149 -0.300184 0.293826
258 -0.057305 0.0343421 -0.100859 0.0886283 0.0763352 -0.0228908 -0.131134 -0.096914 0.0476634 -0.116037 -0.107546 -0.021291 -0.104546 0.0402731 -0.135314 -0.152358 -0.116578 0.176574 -0.056559 -0.101049 0.189033 -0.188461 0.12056 -0.0429669 0.233023 -0.0479598 -0.325269 -0.012001 0.452075 0.214818 -0.142808 0.120906 0.0970578 0.452127 -0.210588 0.0461963 -0.250685 0.094471 -0.0245933 0.401314 -0.305391 -0.0717253 0.295629 0.281028 0.439573 -0.104631 -0.0326775 0.281631 -0.366581 0.0429625 -0.154793 -0.0548562 -0.00628534 0.0435221 0.159021 -0.0618911 -0.0643265 0.151838 0.167572 0.122155 0.184574 0.0514046 0.157978 0.300622 -0.195194 -0.140455 -0.101759 -0.0944383 0.0362078 -0.00809812 -0.0287155 -0.0693711 0.0468075 0.00276372 0.0882501 0.0115657 0.0939723 -0.1241 0.17252 0.0217572 0.444838 -0.0333713 -0.313347 0.442375 0.459318 -0.105603 -0.156445 -0.390079 -0.416724 0.117136 -0.0226884 -0.251442 0.209406 0.142843 -0.159686 -0.145057 -0.00604838 0.859945 0.696736 -0.108049 -1.11084 -0.608207 -0.0098174 -0.0234953 -0.309707 1.42542 0.416795 0.0331277 0.0596742 0.251159 -0.375076 -0.157307 0.373827 0.246743 0.0921386 0.458628 0.301991 0.396578 0.39005 -0.0837183 -0.366703 -0.573549 -0.169112 0.0214192 0.591578 0.0119648 -0.307307 0.296693
2557 -0.145291 0.0484269 -0.149737 0.0189084 0.0847386 0.0794553 -0.199129 -0.181956 0.154991 -0.155684 -0.0736627 -0.0650128 -0.188215 -0.0365067 -0.127365 -0.108843 -0.0795517 0.167228 -0.0925575 -0.1771 0.160243 -0.182078 0.160447 -0.0449145 0.266782 -0.0719348 -0.319295 -0.018239 0.568487 0.228236 -0.0824509 0.0562973 0.174703 0.562547 -0.266129 0.159037 -0.316523 0.152546 -0.0162951 0.505932 -0.399768 -0.0889967 0.332166 0.269413 0.510784 -0.131465 -0.0302556 0.385019 -0.435354 0.0558341 -0.263703 0.00183967 0.0288583 0.08921 0.188375 -0.0686885 -0.201039 0.166501 0.150038 0.168682 0.227575 0.0401215 0.204584 0.346526 -0.282446 -0.206555 -0.0799506 -0.0470754 0.0381042 -0.0897608 -0.0275674 -0.0784815 0.165377 0.00457873 0.100258 0.0141034 0.170584 -0.206048 0.206184 0.0536401 0.687872 0.00525196 -0.391643 0.55652 0.578752 -0.146898 -0.182694 -0.370458 -0.449071 0.206797 0.0107181 -0.342366 0.291643 0.217967 -0.260304 -0.182749 -0.00505466 1.00705 0.708879 -0.0194393 -1.20093 -0.746537 -0.0251536 0.00584903 -0.403266 1.88989 0.565289 -0.0346182 0.148683 0.257505 -0.508551 -0.149072 0.45342 0.227819 0.128447 0.468118 0.314179 0.519261 0.510919 -0.145579 -0.524943 -0.694931 -0.0903181 0.0419299 0.715686 -0.053657 -0.335755 0.322926
57 -0.173252 0.0505971 -0.0902052 0.0335554 -0.0287244 0.0477712 -0.133056 -0.164006 0.150893 -0.17871 -0.0353168 0.00812774 -0.248738 0.0031291 -0.177837 -0.0713044 -0.0403229 0.106384 -0.0795416 -0.00363106 0.126955 -0.0878664 0.0264948 0.0482999 0.27556 0.0372591 -0.199772 -0.135975 0.564279 0.187111 -0.0344125 0.0853172 0.218408 0.481152 -0.224715 0.0955241 -0.271079 0.219702 -0.0758223 0.376895 -0.356953 -0.0915243 0.253045 0.153705 0.456905 -0.192455 0.0392472 0.131247 -0.318693 -0.00644799 -0.204999 -0.120508 0.0991001 0.159728 0.197833 0.0570244 -0.232665 0.135987 0.152778 0.107672 0.140916 0.140647 0.174814 0.235414 -0.21192 -0.141489 0.0128794 -0.0459969 0.0543583 0.0241906 -0.0510774 -0.0952587 0.480319 -0.029736 0.0859907 0.0534658 0.116471 -0.189595 0.121244 0.111286 0.705777 0.0069416 -0.377326 0.478453 0.444701 -0.172764 -0.177272 -0.304899 -0.190884 0.161295 0.162245 -0.185502 0.270573 0.102357 -0.213039 -0.127082 -0.0093727 0.71867 0.522207 -0.0651102 -0.900589 -0.627028 -0.0268962 -0.0335236 -0.438188 1.55534 0.57698 0.0452755 0.173677 0.226143 -0.416132 -0.0460659 0.456223 0.285142 0.0866785 0.376668 0.128054 0.479858 0.430485 -0.140919 -0.503499 -0.700764 -0.075832 0.0818471 0.645328 -0.0552265 -0.300439 0.2992
256 0.0105378 0.034188 -0.0634118 0.0631997 0.0988182 -0.0614254 -0.0731852 -0.0441515 0.135806 -0.068673 -0.177839 0.0168074 -0.0863874 0.0590352 -0.134978 -0.176675 -0.114904 0.211605 -0.0884352 -0.122915 0.23736 -0.202088 0.160452 -0.0587327 0.203412 -0.201579 -0.323669 0.0770208 0.387103 0.206127 -0.158728 0.106519 0.0400381 0.398629 -0.19225 0.0570611 -0.321237 0.0769141 -0.0523748 0.448715 -0.278273 -0.0917373 0.382844 0.389437 0.55263 -0.117074 -0.043711 0.413974 -0.442362 0.0543706 -0.230218 -0.0089602 0.0154306 0.0618528 0.177885 -0.0591765 0.00384631 0.195754 0.246836 0.116383 0.275749 0.0329395 0.196295 0.486877 -0.23601 -0.167572 -0.171168 -0.0499308 0.157181 0.00914728 0.0145311 -0.157802 -0.0360728 -0.0416004 0.0782225 0.0178929 0.133823 -0.112425 0.209481 0.0868682 0.466872 -0.0665207 -0.277468 0.477927 0.594824 -0.110238 -0.195926 -0.448133 -0.548303 0.126822 -0.0426901 -0.289132 0.219687 0.169602 -0.181303 -0.139194 0.0439896 0.979635 0.943083 -0.0807735 -1.39094 -0.793139 -0.07713 0.00763761 -0.354311 1.60864 0.43598 0.0638427 0.0172756 0.254695 -0.356199 -0.260089 0.287841 0.239625 0.0969228 0.611519 0.402918 0.487777 0.398892 -0.0568662 -0.383451 -0.670775 -0.184799 0.0250282 0.716817 -0.00529795 -0.426181 0.356993
2748 -0.0488345 -0.00203589 -0.0428329 0.0948725 0.0269894 -0.0246696 -0.110204 -0.0571386 0.0836523 -0.123447 -0.164135 -0.0140637 -0.0910132 0.139011 -0.137859 -0.134135 -0.0902413 0.251216 -0.101483 -0.14965 0.268102 -0.21558 0.146383 -0.0858154 0.233111 -0.163419 -0.456252 0.0883963 0.638497 0.297514 -0.310853 0.126044 0.0919024 0.539219 -0.326899 -0.0435513 -0.321583 0.167687 -0.164267 0.502823 -0.358497 -0.0720598 0.371895 0.432999 0.649541 -0.0584116 -0.00787426 0.405512 -0.517585 0.0262176 -0.228033 -0.0130796 0.0242192 0.104732 0.201462 0.0326228 0.0220388 0.240588 0.164493 0.182972 0.325857 0.10556 0.229264 0.487755 -0.192897 -0.286268 -0.330657 -0.000133598 0.0385451 0.0668636 -0.00899238 -0.150084 0.0490372 -0.0433087 0.0977158 -0.116069 0.164334 -0.157037 0.153829 0.0465704 0.525534 0.0836878 -0.365432 0.504789 0.545294 -0.0401578 -0.230477 -0.400997 -0.418338 0.18105 -0.000709891 -0.268631 0.212755 0.0878355 -0.187224 -0.158857 0.0690922 1.18954 1.02565 -0.0121511 -1.42946 -0.819224 -0.0423755 0.0688035 -0.400039 1.69197 0.490237 0.0149671 0.0564298 0.254694 -0.465269 -0.276518 0.488963 0.428263 0.0207836 0.505521 0.326168 0.460179 0.44858 -0.138991 -0.455611 -0.768679 -0.188357 0.0628153 0.911897 0.128289 -0.484007 0.48456
386 -0.0673775 -0.0298847 -0.096852 0.103021 -0.00367998 -0.0404259 -0.108146 -0.042787 0.0606875 -0.0970434 -0.185749 0.000595844 -0.0820835 0.163559 -0.174925 -0.188654 -0.11714 0.256947 -0.195573 -0.134629 0.257265 -0.192354 0.102966 -0.0427188 0.256607 -0.125565 -0.475268 0.100808 0.617506 0.277743 -0.324821 0.165805 0.0704613 0.454795 -0.265541 -0.120456 -0.286341 0.194121 -0.198106 0.441063 -0.326881 -0.0533581 0.388983 0.41908 0.721263 -0.0335818 0.0074093 0.361289 -0.486997 0.06008 -0.227932 -0.0314358 0.0569006 0.125212 0.208966 0.123459 0.0953171 0.196195 0.22082 0.176527 0.290137 0.142291 0.208715 0.436152 -0.0490465 -0.297165 -0.308361 -0.022853 0.0935845 0.10354 -0.0877702 -0.192338 0.0421657 -0.0394833 0.0605086 -0.136241 0.147224 -0.0960029 0.182548 0.060896 0.449042 0.115283 -0.379989 0.504242 0.529191 -0.0729395 -0.238026 -0.424612 -0.420863 0.195524 0.0144301 -0.23942 0.205571 0.0779372 -0.126744 -0.124567 0.0773193 1.08859 1.06907 -0.10185 -1.36372 -0.785552 -0.0220442 0.0038999 -0.316695 1.38596 0.332267 0.0587735 0.00311749 0.270553 -0.40221 -0.237961 0.446991 0.382364 -0.0404125 0.479624 0.276192 0.398058 0.382249 -0.139968 -0.409745 -0.749551 -0.264325 0.0412984 0.792803 0.177681 -0.425339 0.449314
2891 -0.0517712 -0.00594632 -0.091769 0.0828259 0.0164021 -0.0316471 -0.0812367 -0.0628021 0.0605205 -0.0658309 -0.125379 -0.00217048 -0.0527493 0.101714 -0.138362 -0.136321 -0.0965597 0.204876 -0.12769 -0.111575 0.174332 -0.149237 0.067483 -0.0196205 0.162349 -0.1321 -0.336511 0.0601994 0.425859 0.190843 -0.206732 0.123506 0.0517855 0.356313 -0.177825 -0.056418 -0.220969 0.103796 -0.137303 0.32389 -0.243764 -0.0224393 0.259955 0.285506 0.484452 -0.0315083 -0.0195829 0.274028 -0.343471 0.0717683 -0.165481 -0.0350987 0.0293042 0.0702857 0.165396 0.0394855 0.0587425 0.139193 0.184523 0.12989 0.222693 0.101344 0.169481 0.334108 -0.0620721 -0.206035 -0.218739 -0.0369664 0.0874269 0.0663491 -0.0611756 -0.147887 6.11708e-05 -0.0101338 0.0447892 -0.0950122 0.104921 -0.0660496 0.13685 0.0316713 0.297486 0.0717334 -0.292269 0.400381 0.43098 -0.0603399 -0.191037 -0.377123 -0.347697 0.129665 0.00701744 -0.1959 0.164349 0.0733969 -0.0958365 -0.0935634 0.053897 0.822075 0.81599 -0.11302 -1.07267 -0.613802 -0.0155804 -0.00245715 -0.215791 1.14276 0.299125 0.0537153 0.00907746 0.22237 -0.310133 -0.176723 0.327815 0.276152 -0.00660028 0.429802 0.226505 0.3314 0.303405 -0.0839293 -0.308052 -0.569429 -0.214857 0.0461664 0.599604 0.129268 -0.328813 0.339942
2690 -0.164738 -0.0168314 -0.244393 0.109984 -0.0551822 0.0847444 -0.171972 -0.138626 0.0419477 -0.164455 -0.125842 -0.00388119 -0.204816 0.121764 -0.214894 -0.24879 -0.115458 0.214116 -0.2694 -0.0551658 0.197727 -0.0953065 0.0357239 0.00471819 0.37852 -0.0531943 -0.479325 0.0358168 0.689911 0.257266 -0.219216 0.143598 0.141954 0.545294 -0.180331 -0.0895575 -0.298796 0.344881 -0.0762296 0.513852 -0.469389 -0.0464667 0.383275 0.366607 0.763624 -0.119057 0.013915 0.284283 -0.49119 0.0974988 -0.247609 -0.0426501 0.15289 0.134852 0.243476 0.167108 -0.0713508 0.225065 0.231668 0.162307 0.228965 0.19635 0.140844 0.358807 -0.0401617 -0.27822 -0.228031 -0.11879 0.108792 0.0739038 -0.161875 -0.266475 0.168984 -0.019104 0.0739454 -0.0455122 0.0966307 -0.12232 0.25352 0.0214072 0.635364 0.0532965 -0.517818 0.675277 0.639091 -0.135076 -0.25563 -0.503725 -0.475133 0.297014 0.0636813 -0.273836 0.314876 0.101163 -0.228871 -0.128479 -0.0583941 1.10583 0.84685 -0.0635829 -1.26107 -0.806771 0.00918899 -0.060475 -0.320576 1.65564 0.303316 0.112562 0.0785836 0.251901 -0.481324 -0.17539 0.45496 0.263794 -0.00847687 0.401445 0.179683 0.429954 0.402423 -0.140745 -0.499108 -0.841033 -0.327052 0.0540737 0.762275 0.142346 -0.286661 0.416315
96 -0.130107 0.15106 -0.0386681 -0.0913698 -0.0221552 0.113821 0.0623278 -0.084899 0.00315475 0.0847748 -0.0593106 0.0832863 0.0971547 0.0598271 -0.00851029 -0.153915 0.167366 0.161092 -0.0201845 -0.040265 -0.0663643 -0.239618 0.245295 -0.0561196 0.329167 0.289531 -0.200432 -0.362201 0.295985 0.140594 -0.260772 0.239475 -0.139257 0.304207 0.00388808 0.00270959 -0.274211 0.48811 0.0437515 0.803614 -0.371961 -0.156987 0.283857 0.235454 0.413595 -0.226424 -0.00493519 0.00978238 -0.364399 -0.0976757 -0.110133 -0.0976405 0.0235669 0.0955802 0.0682098 0.451098 -0.0198225 -0.121979 0.419139 -0.0821557 0.700939 0.20561 0.402669 0.405962 -0.647814 0.202272 0.148018 0.167228 0.0845066 0.389914 0.273159 -0.0200573 0.716445 -0.0913873 -0.0966509 0.390714 0.0842644 -0.201906 0.370415 0.397737 0.672011 -0.156355 -0.314012 0.24375 0.559839 -0.206927 0.131051 -0.38312 -0.100802 -0.0423925 -0.129688 -0.123265 0.180861 -0.0792841 -0.072845 -0.0973109 -0.0294222 0.393754 0.399713 -0.337968 -0.461196 -0.226042 0.159633 -0.0691963 -0.450592 1.11537 0.690637 0.236591 -0.0280329 0.361722 -0.260975 0.149894 0.682932 0.624016 0.0412263 0.112449 0.407533 0.325767 0.214326 0.0240675 -0.234922 -0.451521 -0.109179 0.0996872 0.742952 0.101611 -0.476721 0.135069
2548 -0.11353 0.173221 -0.0342715 -0.0644781 -0.0862511 0.125279 0.138118 -0.0834332 -0.0795569 0.0798268 -0.0329013 0.0984687 0.103596 0.0355706 0.0187301 -0.188303 0.20587 0.21391 -0.0923275 -0.0548022 -0.0696044 -0.232657 0.280099 -0.0553996 0.439041 0.315437 -0.3002 -0.39902 0.38998 0.232962 -0.322094 0.308142 -0.158691 0.381309 0.138608 -0.0746369 -0.255851 0.547453 0.00369619 0.860668 -0.434757 -0.0928894 0.422599 0.301729 0.659115 -0.15033 0.0237418 0.115232 -0.433345 0.00981678 -0.110952 -0.0610458 0.0557236 0.017654 0.107807 0.601764 0.0599386 -0.131322 0.403522 -0.0461563 0.681665 0.262911 0.376732 0.38039 -0.602325 0.17494 0.00996966 0.205932 0.121857 0.441576 0.178821 -0.0967318 0.907613 -0.0531578 -0.112027 0.318987 0.0569718 -0.10255 0.444627 0.343826 0.700119 0.000522276 -0.437891 0.361706 0.650648 -0.207956 0.108297 -0.323029 -0.225237 0.0838143 -0.146379 -0.0190071 0.215991 -0.057619 -0.0678326 -0.0748307 -0.0365413 0.399232 0.458402 -0.397311 -0.44435 -0.327175 0.1592 -0.0447362 -0.447659 1.30114 0.701376 0.291748 -0.0700881 0.364004 -0.325588 0.141288 0.723854 0.684729 -0.0783249 -0.141128 0.347864 0.304119 0.20362 -0.0420732 -0.321491 -0.446583 -0.144099 0.135698 0.830099 0.158109 -0.522284 0.161914
921 -0.105873 0.0485455 -0.0742871 -0.0270533 0.00172448 0.0341202 -0.00198572 -0.075624 -0.036183 0.0678798 -0.113226 0.0894803 0.186075 0.131835 0.00958821 -0.196492 0.167658 0.251973 -0.0401919 -0.0514082 -0.0939865 -0.212047 0.326509 -0.0774922 0.246904 0.220227 -0.207122 -0.375464 0.233154 0.171749 -0.26563 0.220113 -0.258744 0.215683 0.0546442 0.0251617 -0.219295 0.467976 0.0570203 0.801101 -0.3415 -0.0982395 0.303465 0.271245 0.347866 -0.104449 0.00456917 0.115307 -0.346002 -0.0891466 -0.12393 -0.0206617 0.0319526 0.0354147 0.0567811 0.518094 0.0384358 -0.111994 0.457456 -0.157413 0.745795 0.217474 0.367453 0.403522 -0.586176 0.233166 0.126099 0.234915 0.115068 0.377405 0.304021 -0.0478735 0.609544 -0.116017 -0.102198 0.410492 0.0684252 -0.162942 0.347778 0.318675 0.573553 -0.113268 -0.391654 0.301842 0.597419 -0.163623 0.115416 -0.440634 -0.161552 -0.0528713 -0.14261 -0.140459 0.213889 -0.11322 -0.0251501 -0.0521804 -0.0946278 0.279717 0.463302 -0.410935 -0.447632 -0.214219 0.125675 -0.0346438 -0.424329 1.01475 0.659551 0.212377 -0.0565108 0.323702 -0.301582 0.119156 0.643022 0.56529 0.0113058 0.0186038 0.504185 0.277023 0.141202 0.0198381 -0.179289 -0.340588 -0.118281 0.167963 0.795304 0.107835 -0.424813 0.140476
2526 -0.0209584 0.121302 -0.0109945 -0.149505 -0.0710429 0.135356 0.0456152 -0.124141 0.0787027 0.100182 -0.115052 0.115565 0.166393 0.0317418 0.102596 -0.0357136 0.175327 0.251587 -0.0369972 -0.0564493 -0.0518159 -0.314148 0.387996 -0.0945954 0.255259 0.236888 -0.18838 -0.429275 0.164139 0.180261 -0.239361 0.227599 -0.27076 0.223991 -0.118328 0.145731 -0.241258 0.539124 0.19214 0.959875 -0.400182 -0.2169 0.321854 0.300721 0.351162 -0.127112 0.0276191 0.153891 -0.420515 -0.168252 -0.133083 0.0127258 0.0658532 0.0942227 -0.00187927 0.548018 -0.0592762 -0.129264 0.473547 -0.160753 0.896574 0.207385 0.493999 0.398381 -0.753379 0.32065 0.253805 0.237442 0.0504698 0.481827 0.436761 -0.00771779 0.728006 -0.18597 -0.172119 0.426766 0.0702777 -0.291987 0.382126 0.482475 0.682357 -0.19403 -0.271808 0.349984 0.700777 -0.243943 0.0900165 -0.537311 -0.141062 -0.096933 -0.18609 -0.259181 0.289191 -0.134998 -0.152188 -0.0640404 -0.0325673 0.442415 0.477347 -0.307072 -0.497406 -0.251824 0.19415 -0.0374442 -0.530668 1.2343 0.800978 0.233832 -0.0456596 0.261436 -0.332083 0.154103 0.705709 0.669387 0.0577036 0.0923638 0.479905 0.287474 0.167688 -0.0162728 -0.201316 -0.344349 -0.0836135 0.16078 0.884536 0.1006 -0.445826 0.0816699
915 -0.128118 0.0319919 -0.0857035 -0.0273438 0.0960551 0.0923341 0.0115692 -0.0474104 0.0319608 0.123244 -0.171573 0.00834223 0.173776 0.121616 0.0321168 -0.222342 0.152539 0.228825 -0.055954 -0.159307 -0.0910581 -0.269732 0.38525 -0.0728669 0.352557 0.260509 -0.207475 -0.435814 0.24114 0.151655 -0.31276 0.247434 -0.239475 0.302861 0.0225898 0.0223685 -0.315484 0.556338 -0.0100643 0.964613 -0.379181 -0.0988197 0.327985 0.279358 0.368615 -0.185414 -0.021633 0.105672 -0.357905 -0.0288854 -0.153877 -0.022772 0.0232604 0.0717753 0.0934179 0.6105 0.035782 -0.161601 0.553708 -0.160892 0.922084 0.245284 0.468939 0.508211 -0.717759 0.231638 0.175977 0.261748 0.207711 0.435472 0.38862 -0.0625938 0.645383 -0.114275 -0.203821 0.379689 0.0780651 -0.171424 0.362153 0.300212 0.528803 -0.115668 -0.411826 0.253657 0.616159 -0.146201 0.146152 -0.512709 -0.131314 -0.0634476 -0.184806 -0.179007 0.175922 -0.0854116 0.0175043 -0.0513 -0.119365 0.312666 0.514095 -0.491955 -0.581243 -0.242558 0.1128 -0.0387491 -0.415234 1.13394 0.76993 0.235456 -0.0946219 0.437937 -0.350717 0.125092 0.708573 0.556887 0.0227142 0.0417833 0.6151 0.318398 0.217384 0.0126604 -0.187461 -0.415784 -0.14644 0.13865 0.850893 0.142705 -0.545184 0.199648
2527 -0.201288 0.0641974 -0.0713785 -0.0207168 0.0188717 0.118618 0.0252859 -0.118588 0.0548916 0.0446943 -0.0909426 0.0741315 0.048924 0.00245641 0.06266 -0.0579535 0.222727 0.175911 -0.0209191 -0.121049 -0.0375304 -0.269163 0.349205 -0.0634187 0.263937 0.173455 -0.243895 -0.481421 0.260929 0.23729 -0.280776 0.231317 -0.226699 0.248096 -0.0369728 -0.0201562 -0.351115 0.646496 0.0670489 0.962162 -0.369682 -0.0520319 0.381271 0.240544 0.530284 -0.181504 -0.100695 0.139553 -0.418659 -0.102165 -0.137296 -0.122714 0.0212667 0.120359 0.162789 0.6061 0.098741 -0.104887 0.518242 -0.138615 0.919396 0.221786 0.526347 0.535652 -0.752058 0.174743 0.21992 0.3398 0.271345 0.369266 0.464905 -0.13212 0.823036 -0.259192 -0.29823 0.279858 0.15462 -0.209512 0.22683 0.253855 0.618508 -0.12257 -0.404741 0.304983 0.551427 -0.232372 0.110837 -0.569467 -0.223845 -0.0214955 -0.147718 -0.152837 0.331213 -0.0602484 -0.0909365 -0.0369914 -0.0323745 0.524471 0.405272 -0.511751 -0.487311 -0.261925 0.120577 -0.161491 -0.39535 1.17443 0.754018 0.186389 -0.0491979 0.418703 -0.327661 0.192351 0.665083 0.475467 0.146668 0.298369 0.635275 0.429136 0.238638 -0.0101391 -0.321735 -0.514625 -0.207785 0.0601617 0.613596 0.0440687 -0.510089 0.132937
917 -0.0873265 0.139937 -0.0855788 0.00564633 0.0291935 0.148155 0.0611111 -0.0667357 0.0160635 -0.000892384 -0.11448 0.029462 0.181816 0.144354 0.122322 -0.231433 0.161495 0.157113 0.0097982 -0.179108 -0.0937261 -0.283004 0.327185 -0.213842 0.24219 0.170153 -0.110104 -0.401061 0.252725 0.141697 -0.145151 0.103417 -0.133641 0.257208 -0.0281476 0.0234923 -0.42829 0.583299 0.0181614 0.921616 -0.375613 -0.0804071 0.294483 0.231157 0.324319 -0.208166 -0.0775003 0.00763718 -0.390862 -0.0508729 -0.126478 -0.0883355 0.0626338 0.20606 0.155926 0.605707 -0.0173605 -0.0965703 0.495961 -0.0629562 1.07075 0.116308 0.492298 0.558814 -0.875101 0.00691842 0.100346 0.200091 0.178827 0.320937 0.520421 -0.208508 0.530792 -0.195622 -0.215843 0.335089 0.104104 -0.186121 0.171557 0.198921 0.426555 -0.181744 -0.34082 0.119433 0.465738 -0.16533 0.163621 -0.598295 -0.134948 -0.0149231 -0.0891725 -0.285993 0.245811 -0.182071 -0.045815 0.0333152 -0.00880579 0.371863 0.375292 -0.414388 -0.542907 -0.303486 0.119726 0.0228553 -0.198016 0.938575 0.657888 0.256729 0.0273955 0.430455 -0.269896 0.138637 0.618754 0.380953 0.0937159 0.168204 0.558874 0.214419 0.118047 0.0503037 -0.123478 -0.456957 -0.0270677 -0.0265983 0.536372 0.20945 -0.410763 0.110832
920 -0.134956 0.106067 -0.128296 -0.0228182 0.0140478 0.178849 0.0556032 -0.0752674 0.0542837 0.0184548 -0.11328 0.0633229 0.181258 0.11975 0.126626 -0.247831 0.178652 0.218436 -0.0249524 -0.18717 -0.0982474 -0.315598 0.39996 -0.241749 0.267559 0.189632 -0.164584 -0.393574 0.2699 0.153589 -0.214678 0.148706 -0.170657 0.253725 0.0317781 0.0179508 -0.425743 0.617963 0.0229517 0.96231 -0.377232 -0.116596 0.343752 0.235174 0.357746 -0.165879 -0.115518 0.125493 -0.453838 -0.0488107 -0.109433 -0.0564419 0.0695571 0.180277 0.126595 0.596461 -0.0132309 -0.129415 0.460673 -0.0163754 1.00108 0.141348 0.496029 0.536128 -0.795686 0.0263902 0.0267209 0.259066 0.153972 0.257534 0.490364 -0.142881 0.469388 -0.226688 -0.306956 0.194187 0.151676 -0.151612 0.158559 0.142343 0.434063 -0.15386 -0.353805 0.114459 0.454642 -0.1563 0.18976 -0.530969 -0.145897 -0.045003 -0.0962697 -0.257567 0.300209 -0.213924 -0.038947 0.049674 -0.0141416 0.430688 0.44313 -0.497354 -0.613387 -0.290066 0.038461 0.0720562 -0.217749 0.991411 0.646408 0.233745 -0.0309937 0.394067 -0.295628 0.137161 0.61778 0.389614 0.0645812 0.10532 0.640828 0.193414 0.0622822 0.0671241 -0.110458 -0.440603 -0.0489189 0.019112 0.539313 0.21308 -0.401087 0.0884735
3226 -0.13069 0.101345 -0.119545 -0.0227186 0.0412466 0.152378 0.0654949 -0.0872383 0.112286 0.0475444 -0.12312 0.0620578 0.168111 0.106847 0.125359 -0.241376 0.191839 0.245829 0.00168718 -0.18094 -0.0924726 -0.327765 0.43945 -0.222883 0.260507 0.177765 -0.179958 -0.427832 0.25722 0.20101 -0.255901 0.168957 -0.229395 0.267965 0.00205692 0.0253231 -0.447984 0.668781 0.0367675 1.07275 -0.391289 -0.0822151 0.389307 0.306024 0.432218 -0.152736 -0.0878209 0.148891 -0.475518 -0.0608239 -0.138761 -0.0210698 0.0690032 0.160309 0.131815 0.699184 0.0133813 -0.152295 0.550811 -0.0753379 1.10157 0.17904 0.550038 0.593618 -0.86477 0.0997672 0.113572 0.301436 0.180595 0.331674 0.557313 -0.144805 0.502226 -0.197738 -0.251344 0.341698 0.123906 -0.194287 0.232671 0.228349 0.494249 -0.182688 -0.400156 0.209308 0.589323 -0.175778 0.163468 -0.624581 -0.156072 -0.06468 -0.193952 -0.291298 0.296081 -0.168245 -0.0685648 0.016626 -0.0341944 0.437732 0.502412 -0.517211 -0.637262 -0.330886 0.112086 0.00978721 -0.329816 1.18693 0.82709 0.268731 -0.0412911 0.456074 -0.341325 0.146693 0.698794 0.498628 0.0973461 0.186173 0.73028 0.305702 0.183457 0.0526965 -0.152262 -0.45685 -0.0914913 0.0853129 0.73646 0.186719 -0.489284 0.141407
922 -0.0996141 0.0414688 -0.0819693 -0.00476756 0.0941014 0.100541 0.0260652 -0.0469894 0.0980659 0.0986268 -0.114701 0.0304911 0.143199 0.105342 0.0221274 -0.202988 0.155721 0.241228 -0.0119468 -0.138225 -0.0492921 -0.265788 0.395404 -0.118466 0.315288 0.245545 -0.177765 -0.45655 0.226866 0.160101 -0.294946 0.240395 -0.263474 0.234997 0.0115433 0.0295531 -0.346996 0.595496 0.00117182 1.01555 -0.359542 -0.070641 0.356331 0.300777 0.417401 -0.168263 -0.0366993 0.0923541 -0.354131 -0.0820089 -0.159717 -0.0390474 0.074819 0.145145 0.0892626 0.705839 0.0434127 -0.160874 0.557108 -0.188841 1.09186 0.249214 0.490619 0.57909 -0.779058 0.206762 0.183548 0.29812 0.20161 0.427382 0.438188 -0.0949118 0.632133 -0.128679 -0.192195 0.44155 0.0848532 -0.178078 0.325284 0.307758 0.489826 -0.123096 -0.420438 0.284353 0.61908 -0.154365 0.1187 -0.544285 -0.0995881 -0.0879768 -0.235508 -0.191154 0.209442 -0.118908 -0.0376932 -0.0328023 -0.0809675 0.348965 0.520736 -0.508478 -0.626051 -0.270535 0.108634 -0.0608876 -0.410989 1.20721 0.840685 0.259592 -0.102254 0.429997 -0.329028 0.128072 0.689424 0.558633 0.0415895 0.149975 0.673844 0.358383 0.238337 0.010666 -0.178791 -0.408307 -0.139676 0.163898 0.88289 0.110577 -0.568089 0.213356
2589 -0.118036 0.0856952 -0.0836429 -0.097905 0.0974464 0.0800658 0.00704687 -0.0729399 0.0531453 0.154479 -0.16856 0.0227955 0.150209 0.091204 0.0418762 -0.134444 0.177664 0.210546 -0.103756 -0.179912 -0.109335 -0.29847 0.418341 -0.0807576 0.335867 0.274285 -0.253106 -0.465611 0.244666 0.12529 -0.403223 0.288585 -0.33796 0.222811 0.0665435 0.0565387 -0.316319 0.593333 -0.0138361 1.03656 -0.379193 -0.0632333 0.404541 0.359911 0.518837 -0.229107 -0.0251387 0.110812 -0.379077 -0.0616138 -0.19744 -0.0117852 0.0109363 0.0683991 0.116626 0.704242 0.110186 -0.167533 0.54965 -0.182826 0.969949 0.292509 0.507055 0.608458 -0.705064 0.231464 0.208047 0.362368 0.263625 0.452648 0.437689 -0.061023 0.745448 -0.101824 -0.258434 0.390496 0.0803006 -0.193291 0.392849 0.329978 0.558964 -0.0944465 -0.446753 0.337912 0.686441 -0.167464 0.126009 -0.574575 -0.124433 -0.0940428 -0.255798 -0.143934 0.213582 -0.0579107 -0.068558 -0.0941304 -0.0992837 0.515487 0.490464 -0.493822 -0.598987 -0.203977 0.0981958 -0.0811591 -0.525794 1.15973 0.800938 0.196352 -0.114096 0.42732 -0.356839 0.133838 0.674293 0.553758 0.0513747 -0.016217 0.668162 0.329609 0.249351 -0.0124775 -0.217537 -0.389671 -0.135895 0.114051 0.717898 0.065992 -0.504771 0.126007
2646 -0.220304 -0.0561748 0.0522763 -0.0819366 0.0862782 0.0860602 0.0404492 -0.00953268 -0.00689543 -0.0361275 0.0229358 -0.0877781 -0.076435 -0.0330537 -0.190678 -0.268 0.0845223 0.0369922 0.120345 -0.0317416 0.105129 0.0847265 -0.00232241 0.00146237 0.422788 0.151581 -0.191267 -0.0793212 0.162862 0.238259 -0.0933807 -0.0103837 0.37861 0.291604 -0.183755 -0.226033 -0.277474 0.653564 0.150236 0.28532 -0.227305 -0.082421 0.195756 0.128844 0.357949 -0.115991 -0.00844035 0.00408013 -0.183488 0.240378 -0.314906 0.0250001 0.194834 0.333925 0.141133 0.472091 0.0902952 -0.0608546 0.459874 -0.282423 1.0496 0.123939 0.22905 0.295251 -0.848755 -0.129411 0.197591 -0.0328766 0.39832 0.217388 0.309956 -0.582774 0.547232 -0.337368 0.196399 0.498543 -0.087295 -0.164898 0.253837 0.321227 0.360187 -0.130981 -0.264269 0.30484 0.440476 -0.197204 -0.154652 -0.457153 -0.427732 0.34782 0.110235 -0.278749 0.142018 0.159815 -0.0171881 0.00821442 0.0788184 0.239654 0.358375 -0.204505 -0.337927 -0.437593 -0.0688422 -0.0447722 0.0414128 0.953269 0.0987786 0.00894853 0.0719371 0.186907 -0.259654 0.00196389 0.376977 0.213764 -0.0221106 0.284234 0.0878976 0.247112 0.180358 0.0798177 -0.3419 -0.485391 -0.0400663 0.0234026 0.329007 0.148434 -0.298994 0.246251
160 -0.130889 -0.0459308 0.0533249 0.00558237 0.147769 0.112338 0.0688891 -0.0234161 0.0659187 -0.0348506 0.0991236 -0.078491 0.0805357 -0.0450496 -0.140868 -0.375642 0.0635091 0.0593074 0.171342 -0.103227 0.215546 0.0851223 -0.0461911 -0.0565896 0.592125 0.279565 -0.142551 -0.106505 0.274091 0.287577 -0.204634 0.06598 0.362308 0.304803 -0.176259 -0.250653 -0.248232 0.644596 0.017384 0.351542 -0.299797 -0.210159 0.142939 0.0332791 0.524712 -0.00408828 0.0631621 0.0748501 -0.140893 0.297036 -0.30337 0.112426 0.312385 0.424274 0.148115 0.648929 0.042479 -0.0864716 0.423679 -0.240652 1.26985 0.187361 0.187896 0.261783 -0.918252 -0.100891 0.173477 -0.0521055 0.374952 0.190175 0.350063 -0.649428 0.640654 -0.42668 0.153413 0.594826 -0.0354429 -0.207614 0.180584 0.254222 0.370422 -0.128665 -0.371514 0.386779 0.454668 -0.174591 -0.2455 -0.543015 -0.429457 0.34171 0.0126837 -0.15467 0.191581 0.193941 -0.0386954 -0.0181845 0.180707 0.395202 0.443663 -0.273992 -0.532077 -0.465404 -0.0839182 -0.123018 -0.014937 1.11063 -0.0122523 0.0817808 0.0395278 0.214975 -0.232527 -0.022081 0.33104 0.15333 -0.170018 0.276618 0.0161022 0.31603 0.194378 -0.0444022 -0.352943 -0.545015 0.0185684 0.106458 0.432148 0.183198 -0.475484 0.313065
2488 -0.146854 -0.00216724 0.0175109 -0.417037 0.270206 0.06179 -0.0882342 -0.0806441 0.224759 0.0222574 -0.219617 -0.143295 0.291863 0.108378 -0.0666834 0.00527724 -0.0570517 -0.0375807 0.183588 0.112342 0.32358 -0.0240423 -0.179949 -0.0546777 0.30542 0.335882 -0.0476915 0.007025 0.0792059 -0.111645 -0.209648 0.157275 0.324784 -0.182684 -0.120389 -0.163003 -0.447743 0.728615 -0.0914538 0.399816 -0.314507 -0.0608384 0.21201 0.0957357 0.568177 0.107088 0.019523 0.262248 -0.122246 0.177906 -0.13286 0.246933 0.300565 0.547873 0.0859441 0.601879 -0.0289142 -0.14971 0.319883 0.0394614 0.677697 0.0524552 0.0830447 0.183728 -0.742533 -0.417822 0.101671 0.0890339 0.22002 -0.119124 0.208457 -0.902379 0.222074 -0.306032 0.207087 0.717955 0.0986408 -0.0246066 0.318516 0.425719 0.100825 0.0837636 -0.25677 0.160242 0.596393 -0.307269 -0.18038 -0.684043 -0.415862 0.262996 0.168028 -0.0414106 0.379609 0.0439767 -0.378998 0.120075 0.60843 0.357493 0.386092 -0.328798 -0.649367 -0.478708 -0.0421137 -0.316694 0.428736 1.2433 -0.183643 0.209444 -0.0258946 0.144935 -0.343678 0.146865 0.0811032 0.0213665 -0.170606 0.483632 0.046192 -0.0010123 0.140368 -0.00844174 -0.267075 -0.345264 -0.0311527 0.0546846 0.22771 0.151629 -0.534667 0.289305
2647 -0.0843222 0.00117065 0.0351362 -0.0552081 0.0413006 0.0697792 0.0367987 -0.0367867 0.0487682 -0.00484803 0.0676611 -0.0489664 -0.0154958 -0.00782227 -0.0924433 -0.219163 0.0656492 0.0180943 0.0668312 -0.0528209 0.119677 0.0234408 -0.01002 -0.0240532 0.372492 0.248277 -0.120142 -0.0711918 0.194603 0.153058 -0.118301 0.0287014 0.263619 0.252068 -0.144451 -0.140369 -0.221062 0.413274 0.0266003 0.212887 -0.237283 -0.104685 0.13117 0.0653965 0.340323 0.00720045 0.0188533 0.0345794 -0.169649 0.166364 -0.195094 0.0629342 0.150983 0.301768 0.103708 0.419098 0.0180799 -0.0147656 0.322195 -0.170275 0.850574 0.0972413 0.16365 0.228011 -0.772697 -0.119059 0.136384 0.0167225 0.289695 0.155873 0.254188 -0.487031 0.505135 -0.260752 0.137274 0.446635 -0.0292277 -0.11729 0.148103 0.211382 0.289655 -0.0938676 -0.256919 0.230851 0.376474 -0.157505 -0.12921 -0.416144 -0.310718 0.228382 0.0775765 -0.144059 0.163291 0.0720589 -0.0526816 0.00376744 0.0814852 0.281093 0.2532 -0.207845 -0.338721 -0.339294 -0.00732425 -0.0791929 0.0304941 0.838853 0.0250409 0.0627912 0.0562043 0.166974 -0.196005 -0.00863919 0.275947 0.142514 -0.0325872 0.211727 0.055517 0.167792 0.123287 0.0277547 -0.20469 -0.339108 -0.0139144 0.0336088 0.255064 0.141238 -0.284591 0.194216
637 -0.330903 -0.170464 0.013179 -0.025655 0.054874 0.0620523 0.0556248 0.0909066 -0.0782496 -0.0177166 -0.0122194 -0.108627 -0.169019 -0.0161597 -0.223907 -0.197898 0.160985 0.0814202 0.139905 -0.0457494 -0.0744801 0.118048 0.04356 0.0783241 0.320004 0.0956777 -0.284033 -0.0451113 0.170363 0.363152 -0.154671 -0.00105826 0.348176 0.340297 -0.287914 -0.281425 -0.250216 0.716894 0.299311 0.326993 -0.13125 -0.0545147 0.296832 0.192361 0.107891 -0.189226 -0.0303278 0.0829687 -0.259499 0.220031 -0.356308 -0.0147293 0.21093 0.273947 0.135266 0.494084 0.147548 -0.084497 0.53064 -0.342304 1.01695 0.098005 0.264426 0.35239 -0.705796 -0.197333 0.198303 0.0736037 0.465005 0.230398 0.40499 -0.484206 0.455727 -0.384617 0.233491 0.4596 -0.108822 -0.177668 0.358917 0.406533 0.422677 -0.134865 -0.243677 0.293548 0.416241 -0.165944 -0.143342 -0.476357 -0.521291 0.415349 0.0133423 -0.471892 0.191892 0.144951 -0.0765157 0.0679412 0.0627871 0.163697 0.44132 -0.162842 -0.25662 -0.431036 -0.174872 0.149502 0.0617635 0.915101 0.416232 -0.0222573 0.00925777 0.149049 -0.281365 0.0351794 0.461048 0.270132 0.0307276 0.308142 0.21921 0.333773 0.1506 0.152775 -0.453284 -0.553934 -0.0237462 0.0969917 0.402727 0.0829652 -0.201857 0.169092
2696 -0.320348 -0.0904657 -0.228988 0.167151 0.154944 -0.0579599 -0.192818 -0.0210811 0.1935 0.0606214 0.0699222 0.0181429 -0.155517 -0.0754167 -0.0520214 -0.0061393 0.107206 0.0980666 0.0746329 -0.152047 0.0480084 0.185495 0.0447922 -0.0433013 0.542244 0.0627 -0.320782 0.00482209 0.228299 0.490772 -0.0849512 0.0358038 0.357828 0.527991 -0.246046 -0.375555 -0.0136447 0.31718 0.154234 0.333602 -0.0899107 0.163701 0.184411 0.293386 0.199863 -0.263432 -0.0691646 -0.117401 0.0673301 0.167126 -0.395999 0.0421742 0.0831446 0.0168182 0.0259211 0.626265 0.241236 0.161711 0.393798 -0.268021 0.518722 0.0109754 0.134531 0.51678 -0.678951 -0.0632822 0.0360968 0.089502 0.530778 0.565621 0.224765 -0.476018 0.690012 -0.499047 0.363126 0.380208 -0.465492 -0.293934 0.491408 0.555912 0.20478 -0.1356 -0.0513777 0.48195 0.335145 -0.0202972 -0.402145 -0.237296 -0.381334 0.253795 -0.26176 -0.154913 -0.118331 0.171429 -0.276309 0.0200576 0.168607 0.736898 0.285042 0.439268 -0.306239 -0.461461 -0.0404597 0.319524 -0.133074 1.19513 0.697319 0.0589145 -0.0325232 -0.0230445 -0.0615517 -0.182019 0.539283 0.659538 -0.329726 -0.280835 0.0121568 0.272438 0.0193816 0.047409 -0.384613 -0.414011 0.0285965 0.0443272 0.613934 0.0107819 -0.292762 0.213704
626 -0.0401089 -0.0612083 0.00920811 -0.120591 0.0601294 0.286609 0.16618 0.108806 0.0463471 -0.0564178 0.0815685 -0.133463 -0.305653 -0.0591484 -0.231405 -0.279229 0.0608195 0.0266811 0.08174 0.0817835 -0.049417 0.10003 0.0948747 -0.00705284 0.375615 0.146836 -0.310005 0.0120538 0.340881 0.251889 -0.360909 0.16928 0.123852 0.338025 -0.137751 -0.27773 0.00434161 0.360318 0.0695708 0.202723 -0.230838 -0.0997962 0.17804 0.184335 0.427256 -0.0990043 0.089825 0.128844 -0.156713 -0.00995048 -0.0795671 0.0608148 0.0599878 -0.0396356 -0.00628039 0.276184 0.188333 0.0970927 0.250543 -0.0881488 0.565271 0.0720688 0.0775029 0.340842 -0.464947 -0.0861912 -0.0905168 0.0641665 0.305492 0.334712 0.194693 -0.453157 0.593839 -0.389108 0.257285 0.46139 -0.182536 -0.118617 0.387462 0.277111 0.450513 -0.0865532 -0.228797 0.326323 0.440529 0.000100116 -0.330176 -0.18855 -0.371562 0.208575 -0.232584 -0.0700986 -0.0527489 0.111453 -0.108225 0.000725651 0.195043 0.666867 0.441059 -0.0506987 -0.542621 -0.435907 0.00623272 0.0557462 -0.204697 1.20293 0.357926 0.179168 -0.0482376 0.0771629 -0.225738 -0.211131 0.380281 0.497587 -0.198829 -0.0816536 -0.0930485 0.189153 0.0151797 -0.0486263 -0.152176 -0.147916 0.00824844 -0.0104748 0.192545 0.134523 -0.167432 0.122988
633 -0.284278 -0.376851 0.00561973 -0.0435584 0.06465 0.2333 0.118122 0.0767528 0.0396052 0.0984095 -0.130325 -0.127463 -0.218562 -0.0728086 -0.292273 -0.162074 0.0564306 -0.0193781 -0.0773964 -0.107099 0.00412828 0.0702318 0.0306524 0.114771 0.669928 0.322025 -0.254429 -0.0836477 0.16407 0.207486 -0.210284 0.109659 0.259979 0.276631 -0.142816 -0.179259 -0.0340708 0.243483 0.105323 0.184732 -0.175714 -0.151086 0.289749 0.275856 0.52153 -0.266128 0.12334 0.131276 -0.322646 0.110546 -0.295641 -0.00661284 0.107399 0.082203 0.001269 0.542225 0.155124 0.0724603 0.257301 -0.17335 0.597861 0.0845055 0.112667 0.28098 -0.451522 0.00668899 0.0722541 -0.0158637 0.350352 0.339376 0.250266 -0.377261 0.708764 -0.36702 0.127318 0.313881 -0.248823 -0.258539 0.331597 0.452225 0.32751 -0.128197 -0.012261 0.266728 0.246947 -0.0802843 -0.282082 -0.232667 -0.375361 0.214211 -0.128083 -0.064061 -0.0464306 0.136885 -0.176248 -0.0211995 0.206735 0.72442 0.302265 0.0227849 -0.261368 -0.222742 -0.103405 0.0372978 -0.217888 0.94727 0.366137 0.00642762 0.00847083 0.000656177 -0.164627 -0.130107 0.470573 0.375444 -0.177442 -0.148858 -0.106304 0.18633 0.0999446 -0.0745847 -0.398417 -0.491847 -0.015051 -0.0430809 0.203495 0.0736918 -0.174615 0.104959
641 -0.207989 -0.252546 0.000693782 -0.0329757 0.0551363 0.133441 0.102542 0.0242952 0.0554974 0.0775802 -0.0658727 -0.0957743 -0.164562 -0.0466119 -0.228631 -0.131873 0.0208242 -0.0322169 -0.0223058 -0.0528812 0.00647791 0.0845893 -0.0228929 0.144203 0.59696 0.317645 -0.286544 -0.0423885 0.173636 0.314997 -0.264953 0.115371 0.2854 0.255871 -0.165022 -0.219246 -0.0842791 0.43415 0.179895 0.271412 -0.214606 -0.0168601 0.297594 0.343598 0.538046 -0.286626 0.133495 0.173806 -0.404007 0.0807086 -0.271431 0.0264374 0.0786373 0.0130154 0.00194985 0.512547 0.216215 0.00348737 0.395792 -0.21552 0.642675 0.138631 0.163072 0.390344 -0.659551 -0.0191693 0.106617 -0.0974176 0.312283 0.372333 0.211572 -0.401603 0.715393 -0.307718 0.238774 0.311299 -0.342571 -0.219482 0.41295 0.542632 0.339129 -0.210968 -0.0509427 0.271463 0.317433 -0.0349824 -0.351451 -0.230261 -0.530817 0.274662 -0.16966 -0.0458142 -0.206174 0.143477 -0.120799 0.00709607 0.238549 0.781847 0.298146 0.140265 -0.187893 -0.288037 -0.0565043 0.0748413 -0.194158 1.13768 0.287106 -0.0805189 -0.0363202 0.0575366 -0.137654 -0.133833 0.484771 0.503867 -0.159254 -0.189641 -0.0847594 0.10466 0.0793222 0.0155921 -0.331255 -0.388614 0.0137749 0.0667407 0.20199 0.0562727 -0.117384 0.134507
2866 -0.174843 -0.523462 -0.0472394 0.0638444 0.0479398 0.12939 0.0885958 0.0580799 0.16522 0.0545653 -0.33668 -0.102531 -0.141819 0.0173703 -0.349475 -0.0520536 0.0442095 0.00415946 -0.201649 -0.156695 0.0552043 0.182839 0.00315881 0.265087 0.815253 0.453265 -0.146639 -0.184052 0.145998 0.152039 -0.232963 0.251245 0.264371 0.324524 -0.114848 -0.0888213 -0.0292464 0.08264 0.0289244 0.189368 -0.226209 -0.205105 0.217958 0.201685 0.665993 -0.274518 0.0848206 0.17251 -0.291977 0.0562547 -0.345004 -0.0489711 0.145141 0.052137 -0.0865967 0.72671 0.191016 0.0357162 0.412059 -0.139126 0.756491 0.1813 0.140404 0.313496 -0.573679 0.163909 0.0946176 0.013948 0.429028 0.393373 0.380655 -0.516208 0.866123 -0.36043 0.0370731 0.309634 -0.233292 -0.441562 0.368699 0.673538 0.231624 -0.237729 0.011986 0.3034 0.350219 0.00910523 -0.429018 -0.262735 -0.534459 0.0858506 -0.324239 -0.0314489 -0.110214 0.050039 -0.283452 -0.0181167 0.441023 0.984528 0.412779 0.0259852 -0.268732 -0.128925 -0.137334 -0.061968 -0.268001 1.27307 0.398121 -0.0746769 0.125344 -0.026426 -0.217774 -0.0970309 0.580557 0.44729 -0.327585 -0.161122 -0.322223 0.140224 0.00630721 -0.142518 -0.491855 -0.465099 -0.00501741 -0.0450292 0.286909 0.200075 -0.203518 0.0849474
370 -0.25007 -0.457111 0.150115 -0.00921802 0.168417 0.342682 0.180843 0.148979 -0.0623868 0.068072 -0.259048 -0.229049 0.0469833 -0.101851 -0.220496 -0.0679898 -0.0869353 -0.0716817 -0.19416 -0.245327 -0.0309524 0.0514138 -0.0572937 0.157663 0.791152 0.338932 -0.195199 -0.159048 0.220221 0.141746 -0.285333 0.282534 0.0607794 0.279646 -0.235062 -0.0811175 0.00869619 -0.0363796 0.0798068 0.225687 -0.209613 -0.285349 0.222258 0.105882 0.436412 -0.259332 0.101689 0.169198 -0.43431 0.0475875 -0.317088 -0.0382333 0.136113 -0.00484274 -0.0588595 0.564277 0.253175 0.0494086 0.31307 -0.00151127 0.89293 0.194396 0.237363 0.450152 -0.656863 0.0709468 -0.016677 0.0414116 0.337434 0.463214 0.298417 -0.371861 0.69067 -0.502194 -0.111597 0.149133 -0.16556 -0.360475 0.391573 0.520798 0.167251 -0.0240841 0.0639735 0.129692 0.161751 -0.0431896 -0.354276 -0.378383 -0.462501 0.0504224 -0.304089 -0.123972 -0.0579403 0.158498 -0.223103 -0.082294 0.437847 1.03691 0.483278 -0.126025 -0.465021 -0.205099 -0.227961 -0.0944591 -0.356063 1.09833 0.322718 0.010829 -0.0381372 0.1012 -0.0743069 -0.0957742 0.397302 0.378223 -0.255705 -0.0103147 -0.206217 0.257544 0.0542166 -0.210602 -0.462258 -0.448912 -0.0967837 -0.153956 0.343971 0.0991011 -0.387307 0.114847
2869 -0.197061 -0.495504 0.199929 0.017917 0.182656 0.237659 0.0933283 0.0868764 -0.0986439 -0.00711264 -0.402361 -0.201701 0.248692 0.0303653 -0.175643 -0.0290837 -0.200714 -0.0718638 -0.0867161 -0.161014 0.0657627 -0.0127048 0.0270607 0.118507 0.76402 0.287945 -0.262323 -0.22414 0.242249 0.178601 -0.372396 0.342884 -0.12391 0.324826 -0.421659 -0.0730678 -0.0761052 -0.0245287 0.141859 0.388443 -0.235127 -0.335333 0.252979 0.180651 0.377761 -0.22323 0.0909697 0.13906 -0.526381 -0.0247846 -0.316214 -0.0246905 0.115215 -0.0126352 -0.0358175 0.487942 0.41772 0.105634 0.467144 0.00375611 0.981372 0.272469 0.285842 0.511223 -0.792458 0.13399 -0.00337967 0.124041 0.335899 0.529246 0.408542 -0.397194 0.604711 -0.605953 -0.179073 0.12536 -0.124493 -0.450791 0.341393 0.407441 0.0634778 -0.0192901 0.0112304 0.17764 0.270104 -0.0732825 -0.379298 -0.637088 -0.561969 -0.113185 -0.255007 -0.166971 0.00612423 0.0788545 -0.194953 -0.0803788 0.38479 1.23576 0.493627 -0.167367 -0.605753 -0.173035 -0.315838 -0.173277 -0.417311 0.99758 0.288665 -0.0269693 0.00359593 0.14897 -0.100894 -0.131069 0.391866 0.357041 -0.187502 -0.0166542 -0.0470558 0.312463 -0.0469157 -0.249739 -0.410257 -0.384197 -0.165197 -0.188381 0.502582 0.0747857 -0.38962 0.0973761
949 -0.176272 -0.29501 0.0855047 0.156571 0.135384 0.0844428 -0.0793021 0.0189028 -0.051922 0.0273097 -0.374616 -0.111616 0.305906 0.134766 -0.143122 -0.0510574 -0.148688 -0.00662517 -0.0888657 -0.139287 -0.0255826 -0.0623829 0.0307465 0.110549 0.655988 0.290042 -0.203 -0.19475 0.124371 0.126819 -0.248881 0.278644 -0.167737 0.229271 -0.261476 -0.0103041 -0.0989293 -0.0435702 0.000249903 0.333592 -0.290636 -0.250891 0.258542 0.20523 0.523537 -0.145748 0.0572221 0.223805 -0.574023 -0.00149873 -0.209728 -0.0195319 0.0335618 0.0675428 0.0234828 0.396306 0.265321 0.0964153 0.4057 -0.0608291 0.690319 0.192294 0.267309 0.428557 -0.657032 0.102652 0.0597188 0.140231 0.306502 0.379295 0.334232 -0.378519 0.557282 -0.461845 -0.0934816 0.148218 -0.0261313 -0.254242 0.164645 0.31309 0.166591 -0.0722756 -0.0288411 0.0946249 0.215369 -0.0552678 -0.299912 -0.746978 -0.487532 -0.0806841 -0.0876633 -0.015389 -0.00261207 0.0492567 -0.00214504 -0.0535854 0.238631 0.963776 0.49964 -0.250929 -0.523276 -0.106594 -0.0845587 -0.139631 -0.288886 1.04978 0.306895 0.0285118 -0.0122992 0.199013 -0.105731 -0.104346 0.449114 0.316511 -0.137905 0.0295647 0.0442659 0.206323 -0.0465149 -0.191398 -0.21934 -0.385737 -0.104488 -0.0680695 0.295196 0.0505551 -0.214095 0.0886149
2769 0.0868684 -0.0259944 0.0233697 0.100932 0.0160237 -0.13346 -0.193304 -0.00341914 0.0601391 -0.0775677 -0.294591 0.093091 0.151695 0.270629 0.0177119 0.0835651 -0.00695847 0.0703577 0.216234 0.0111203 -0.139761 -0.114952 0.170865 0.115345 0.704024 0.614963 -0.20651 -0.266593 0.17287 0.166512 -0.391644 0.4378 -0.448496 0.286392 -0.22767 0.088634 -0.09374 -0.193325 -0.203124 0.436546 -0.341675 -0.158875 0.348296 0.276858 0.764174 -0.0591892 0.0623297 0.440763 -0.647507 -0.0329733 -0.186891 0.0773124 -0.00362837 0.25508 -0.090889 0.477336 0.128746 0.157409 0.401297 -0.173637 0.725676 0.155845 0.336936 0.495769 -0.702359 0.107421 0.100117 0.390287 0.36413 0.349376 0.525678 -0.391858 0.599643 -0.460067 -0.164565 0.335266 0.158369 -0.175578 0.0522006 0.154566 0.186696 -0.00474363 -0.108667 -0.0295549 0.30378 0.0917803 -0.275601 -1.07314 -0.453697 -0.180087 -0.160848 0.158985 -0.0012738 0.056804 0.0928586 -0.100255 0.0943861 1.21191 0.484217 -0.26881 -0.529369 0.0824756 0.0333567 -0.12777 -0.396121 1.43918 0.599633 0.0465951 -0.0269647 0.239192 -0.241883 -0.120344 0.599384 0.272777 -0.174957 -0.0472787 0.282893 0.227675 -0.0364227 -0.301103 -0.121495 -0.481235 -0.0341663 0.00900564 0.362398 -0.0304972 -0.346743 0.167309
273 -0.202777 -0.152349 0.101607 0.297125 0.226068 -0.0676431 -0.104965 0.052658 -0.16616 -0.0136989 -0.315483 0.0729652 0.299326 0.212885 -0.000868912 0.0555095 -0.0819544 0.0881412 0.219813 -0.0741985 0.138888 -0.0320269 0.237987 -0.0874656 0.796683 0.473079 -0.054317 -0.00720294 0.0732398 0.289644 -0.374675 0.182064 -0.227056 0.31555 -0.373481 0.0342274 -0.0796304 -0.0446454 -0.0477693 0.422908 -0.302933 -0.113661 0.221544 0.21666 0.523128 -0.0894569 0.0740353 0.3145 -0.544075 0.116449 -0.0904262 0.000682081 0.0768921 0.143656 -0.0329291 0.295738 0.146849 0.16201 0.403584 -0.143229 0.543118 0.0574494 0.362161 0.478899 -0.773316 0.0252947 -0.00528285 0.114251 0.239437 0.242762 0.293657 -0.325801 0.346867 -0.390247 -0.117887 0.288237 -0.0287373 -0.197513 -0.077161 0.120208 0.231079 -0.0753557 -0.318235 0.227952 0.309291 0.0611749 -0.405237 -0.860975 -0.508936 -0.000283469 -0.218032 -0.00191939 -0.0175908 0.173536 -0.129716 0.0405913 0.031203 1.37969 0.450471 -0.27986 -0.673405 -0.063679 -0.000736813 -0.0924996 -0.389312 1.14231 0.0840426 -0.0574249 0.0217356 0.0773457 -0.0464315 -0.002518 0.357463 0.0405371 -0.0692362 0.14819 0.26501 0.379912 0.109281 -0.107992 -0.192944 -0.388514 -0.104068 0.11446 0.598211 -0.0554403 -0.383491 0.318906
3285 0.0481306 -0.157462 -0.0573654 -0.0467517 -0.0302086 0.0193445 -0.0859045 -0.107158 0.183351 -0.00567433 -0.0975258 0.0618935 -0.286387 0.0105443 -0.0684061 0.115196 -0.188012 0.138394 0.0695895 0.137621 0.097483 -0.178113 0.134843 0.0658624 0.127928 0.34056 -0.149281 0.084293 0.103886 0.142187 -0.184805 0.144496 -0.048512 0.131499 -0.190779 0.00258551 -0.148091 0.449911 0.159335 0.401116 -0.228825 0.0579238 0.315899 0.31027 0.389007 0.115124 -0.0710797 0.169055 -0.446684 -0.139742 -0.0678568 -0.0496165 0.154032 0.302978 0.0146949 0.245147 0.173736 -0.0565044 0.378472 -0.170143 0.740783 0.0899164 0.349799 0.448621 -0.678233 -0.121728 0.0874658 0.156642 0.0670317 0.164113 0.0993769 -0.462204 0.36659 -0.26808 0.148354 0.205343 0.109975 -0.0913762 0.224485 0.209319 0.222509 -0.0597368 -0.201363 0.36506 0.453553 -0.201699 -0.28757 -0.563519 -0.537276 0.0690947 0.00560996 -0.162774 0.0528977 -0.0525148 -0.0355466 -0.0617114 0.114985 0.784832 0.283663 -0.105622 -0.301548 -0.198206 0.0661179 -0.177884 -0.133703 0.789239 0.128712 -0.0677216 -0.0568411 0.0669752 -0.0159631 -0.00492145 0.361627 0.449102 0.159746 0.477409 0.378397 0.115786 0.150984 0.00936958 -0.209085 -0.294415 -0.273083 0.167406 0.818058 0.0677117 -0.380867 0.311985
1008 0.0440774 -0.125428 -0.075051 -0.0564404 -0.0469044 -0.0240376 -0.11525 -0.0977414 0.0942877 -0.0483926 -0.0811407 0.0566149 -0.27124 0.0335995 -0.0923961 0.10985 -0.193678 0.161761 0.105375 0.180094 0.0954835 -0.175242 0.143457 0.0844145 0.107617 0.341558 -0.167379 0.0999762 0.100922 0.165722 -0.196965 0.167527 -0.0844486 0.131646 -0.218858 -0.0189213 -0.144537 0.518447 0.176571 0.422345 -0.245721 0.0731791 0.384609 0.349619 0.449087 0.13938 -0.0674313 0.181667 -0.492277 -0.202236 -0.0858188 -0.0420903 0.18066 0.338673 0.0152771 0.312587 0.220132 -0.057693 0.441336 -0.223511 0.856689 0.106072 0.407517 0.560161 -0.797407 -0.165672 0.128964 0.21275 0.0931344 0.199067 0.1127 -0.57051 0.426213 -0.310705 0.21351 0.289894 0.142143 -0.0883974 0.292231 0.266136 0.253738 -0.0575522 -0.243162 0.446733 0.539596 -0.229149 -0.351877 -0.622229 -0.609578 0.0785223 -0.0102315 -0.185163 0.0467787 -0.0507266 -0.04269 -0.0689651 0.159034 0.812973 0.329827 -0.0781219 -0.315251 -0.255924 0.088524 -0.222704 -0.15051 0.873432 0.181573 -0.0645426 -0.085571 0.0700369 0.00926978 0.00984691 0.39558 0.557943 0.187299 0.544869 0.412254 0.161134 0.16854 -0.0188916 -0.249223 -0.292576 -0.308601 0.189714 0.951498 0.0445245 -0.416493 0.340186
2619 -0.207088 0.18874 -0.0120871 -0.150514 -0.0402512 0.208665 0.0157925 0.00921904 0.0488307 -0.18544 -0.103923 -0.0820063 0.0144548 0.0796987 -0.133123 -0.0336573 0.0460508 -0.0171144 0.148608 0.223729 0.169287 -0.202023 0.173947 0.0405242 -0.136044 0.124914 -0.292246 -0.0181402 0.241581 0.317498 -0.274637 0.297496 -0.114072 -0.0649805 -0.208207 -0.0502798 -0.209571 0.608531 0.187036 0.340231 -0.32952 0.353499 0.339722 0.213844 0.721399 0.160223 -0.204372 0.413879 -0.61497 -0.303815 -0.232783 -0.0612751 0.144365 0.403717 0.103949 0.610735 0.449609 -0.0762679 0.22221 -0.163175 0.505125 0.0895719 0.506326 0.732428 -1.0771 -0.374745 0.398261 0.208274 0.273613 0.195324 0.116404 -0.672585 0.518332 -0.242237 0.298382 0.35453 0.0564773 -0.126359 0.484894 0.71261 0.106446 -0.155336 -0.0964049 0.435288 0.616348 -0.206722 -0.338908 -0.552859 -0.55576 -0.0480313 -0.210828 -0.343054 -0.0574529 -0.163881 -0.228771 0.177617 0.276289 0.791557 0.423884 0.00972166 -0.165313 -0.411403 0.203819 -0.205762 -0.0708179 0.796514 0.193611 -0.0770028 -0.085837 0.107586 0.0505484 0.173582 0.497585 0.838948 0.156361 0.557088 0.359255 0.13385 -0.00462978 0.0313668 -0.258524 -0.345602 -0.383203 0.0851462 0.741558 0.0844507 -0.231713 0.188345
346 0.039907 -0.0535379 -0.0533139 0.026855 -0.0890637 0.121975 -0.0217357 -0.0195997 0.214758 -0.0241252 -0.0721839 0.0334087 -0.109184 -0.0137336 -0.0311058 0.0632016 -0.130851 0.0607554 0.152646 0.149339 0.117813 -0.0204468 0.085788 0.0310434 0.163635 0.390003 -0.0417237 0.106853 0.156448 0.235048 -0.211175 0.124887 -0.00693134 0.156571 -0.321341 -0.0236625 -0.167981 0.446555 0.153855 0.363518 -0.206337 -0.00564812 0.246967 0.280813 0.353516 0.114615 0.0446046 0.328616 -0.5588 -0.281049 -0.00442219 0.0107595 0.21099 0.184582 0.0180767 0.336654 0.035469 0.123676 0.298538 -0.135404 0.623634 0.0450198 0.26561 0.494301 -0.7387 -0.176973 0.100747 0.161463 -0.0162784 0.078682 0.177074 -0.376144 0.287062 -0.207673 0.287554 0.463817 -0.0623234 -0.0678856 0.133649 0.310784 0.172421 -0.252889 -0.104927 0.294128 0.366855 -0.0975748 -0.384178 -0.415802 -0.506973 0.0109678 -0.205598 -0.131602 0.0587653 -0.153352 -0.320277 0.11063 0.291403 0.621521 0.249773 0.0580097 -0.324073 -0.325492 0.117146 -0.140831 -0.181229 1.14263 0.377401 0.114125 -0.0717511 -0.0224031 -0.0556282 0.0150066 0.392157 0.505493 0.170288 0.478577 0.219445 0.181148 0.138927 0.0696924 -0.131861 -0.203109 -0.0668246 0.330919 0.757627 -0.013332 -0.314971 0.284582
329 0.0686418 -0.1004 -0.0571382 0.0348352 -0.139504 -0.0109301 -0.075829 -0.0651024 0.157653 -0.031147 -0.103558 -0.0660446 -0.0233725 0.08683 0.0206862 -0.0370429 -0.2079 0.104234 -0.0380567 0.133846 0.25493 -0.135495 0.110474 0.113869 0.322502 0.4984 -0.211005 0.0265541 0.15565 0.202634 -0.147236 0.137502 0.0438827 0.190978 -0.20264 -0.0511077 -0.216485 0.482731 0.197698 0.343422 -0.304096 -0.0301281 0.191893 0.211572 0.39669 0.184576 0.0585542 0.393779 -0.739447 -0.241157 -0.0757264 0.0658238 0.317516 0.354125 0.104727 0.467047 0.0597898 0.17106 0.278369 -0.116283 0.705329 -0.0582064 0.376826 0.525099 -0.802847 -0.250793 0.201222 0.140293 0.0434448 0.0259097 0.106478 -0.401057 0.372351 -0.213695 0.182492 0.298242 -0.0789871 -0.122271 0.196098 0.398493 0.379776 -0.350003 -0.152195 0.426893 0.560542 -0.210201 -0.5196 -0.618003 -0.74306 0.0696098 -0.0554872 -0.239946 0.187791 -0.190863 -0.329424 0.107474 0.371777 0.74803 0.260085 0.0277447 -0.129719 -0.321356 0.132742 -0.171589 -0.000770719 1.09209 0.074275 0.11993 -0.0333292 -0.13088 -0.120702 0.045902 0.291117 0.572851 0.195265 0.618805 0.265208 0.164207 0.125258 0.0260417 -0.255113 -0.456362 -0.204416 0.374974 0.949534 0.125516 -0.333784 0.381511
2833 0.0120854 -0.10004 -0.146096 0.0933333 -0.0972336 0.178606 -0.0318922 -0.0908213 0.374606 0.0349705 -0.051984 -0.0997032 -0.049471 0.0145067 0.0588464 -0.0693966 -0.144316 0.0814888 -0.0839375 0.117139 0.287318 -0.136465 0.0631198 0.115909 0.280439 0.488421 -0.16251 -0.0272389 0.159891 0.237676 -0.0996975 0.101584 0.136561 0.207388 -0.1747 -0.0625612 -0.231135 0.520311 0.213331 0.393495 -0.351877 0.0197548 0.217514 0.245247 0.532378 0.212442 0.114559 0.455754 -0.755164 -0.22612 -0.092356 0.0794203 0.279921 0.373074 0.162548 0.481676 -0.0146875 0.238376 0.199525 -0.133599 0.569315 -0.0674326 0.298995 0.413304 -0.849658 -0.244997 0.287526 0.0740978 0.0206305 0.00718378 0.0806877 -0.255447 0.404248 -0.135924 0.212991 0.316444 -0.103642 -0.121544 0.132852 0.401973 0.50297 -0.380657 -0.20677 0.381398 0.563768 -0.223341 -0.477191 -0.636027 -0.754745 0.12555 -0.021852 -0.178663 0.25849 -0.209217 -0.324819 0.12114 0.346425 0.714917 0.0953172 0.0376577 -0.0335732 -0.288131 0.148955 -0.17553 0.0671475 1.00255 -0.00548281 0.129876 0.0248681 -0.141166 -0.16848 0.075934 0.329452 0.543784 0.179697 0.587711 0.225253 0.185508 0.169461 0.047958 -0.282736 -0.516147 -0.147165 0.434803 0.812555 0.159357 -0.27485 0.401086
334 0.0481481 -0.115486 -0.0622378 0.0933698 -0.039909 0.163021 0.0252686 -0.0242311 0.417911 -0.00183599 -0.0492658 -0.049028 -0.0894232 -0.00465584 0.0539743 -0.0903289 -0.129594 0.0944902 -0.0266547 0.103305 0.323321 -0.0829426 0.124654 0.048866 0.363599 0.521078 -0.187983 0.0127412 0.161595 0.211448 -0.14501 0.0758533 0.152274 0.190399 -0.19765 -0.104927 -0.212838 0.507226 0.19152 0.335451 -0.344732 0.0448879 0.208006 0.283662 0.592226 0.175311 0.10385 0.478519 -0.72044 -0.203849 -0.131338 0.143306 0.288016 0.38917 0.206082 0.571423 -0.0269117 0.251559 0.235006 -0.142017 0.64878 -0.0826341 0.298099 0.465527 -0.831259 -0.247511 0.300069 0.0923686 0.0697576 0.0102291 0.135595 -0.293903 0.388714 -0.144918 0.255761 0.37518 -0.139802 -0.154155 0.166946 0.444896 0.41387 -0.389808 -0.197024 0.425495 0.603406 -0.214895 -0.487502 -0.650938 -0.693358 0.0917346 -0.0880912 -0.240401 0.321953 -0.197742 -0.396904 0.167183 0.352987 0.774569 0.194893 -0.00568998 -0.160408 -0.348211 0.148094 -0.172064 0.0526436 1.03523 0.0414255 0.172429 0.0320735 -0.135339 -0.26309 0.0625605 0.318933 0.552653 0.127497 0.650346 0.242897 0.186917 0.19719 0.0913667 -0.261769 -0.509764 -0.111866 0.445666 0.667622 0.147589 -0.232053 0.38666
2689 0.058975 -0.0355755 -0.206881 -0.0598961 0.0691854 0.147702 0.080419 0.0184852 -0.0276416 -0.0167566 -0.0023424 -0.239623 -0.0192479 0.0159182 0.0207236 -0.00986661 -0.0525859 0.0974687 0.0420443 0.0141735 0.281835 0.0453288 0.290792 0.0602374 0.596682 0.619276 -0.263981 -0.0451821 0.0588958 -0.00435282 -0.26805 0.116596 0.213555 0.14131 -0.0380594 -0.161189 -0.237733 0.512905 0.138899 0.152169 -0.139386 -0.0225838 0.199315 0.240944 0.568124 -0.0826189 0.0651719 0.151222 -0.646119 -0.193427 -0.123327 0.112241 0.25358 0.316512 0.273607 0.568633 0.089782 0.108722 0.346485 -0.0969609 0.57541 -0.00260631 0.128673 0.515956 -0.686763 -0.349309 0.294381 0.160819 0.184131 -0.0627085 0.338377 -0.439836 0.260243 -0.196816 0.345542 0.292154 -0.308761 -0.0246555 0.157308 0.273206 0.14279 -0.41408 -0.0439627 0.470505 0.645875 -0.204349 -0.58311 -0.368441 -0.686142 0.013353 -0.238971 -0.302682 0.23116 -0.0894338 -0.341933 0.258939 0.485953 0.450105 0.497262 0.0401795 -0.311002 -0.494251 0.25059 -0.217503 0.22222 1.05571 0.274468 0.127937 0.0741739 -0.141821 -0.266091 -0.030231 0.40046 0.59262 0.225861 0.72692 0.249104 0.0712196 0.248028 0.0950458 -0.222223 -0.445746 -0.110856 0.576527 0.65856 0.200009 -0.144126 0.415618
322 -0.0872687 -0.0878418 -0.153578 0.120789 0.0305842 0.159219 0.0196918 -0.0354126 0.188574 0.25106 0.161212 -0.0541518 -0.0980036 -0.112669 -0.00689621 -0.0439385 -0.054232 0.0790763 0.142849 -0.0563576 0.158245 -0.077754 0.0462414 0.059872 0.189258 0.467231 -0.0733754 0.126135 0.287246 0.322215 -0.264999 0.153081 0.298279 0.278853 -0.327317 -0.159941 -0.15956 0.364024 0.0631681 0.195875 -0.0951899 0.102169 0.318818 0.317854 0.561512 0.27456 0.0450383 0.402629 -0.385215 -0.0197857 -0.139605 0.106027 0.173655 0.391875 0.0277027 0.263086 -0.0799776 -0.0469116 0.0832109 -0.0546237 0.469978 0.0432529 0.127998 0.129864 -0.654024 -0.333548 0.158264 0.177491 0.0493801 0.0687892 0.18894 -0.237795 0.397238 -0.028444 0.353199 0.515278 -0.102039 -0.138921 0.0949167 0.336443 0.295894 -0.0713234 -0.399172 0.462469 0.641041 -0.269587 -0.432177 -0.691856 -0.480537 0.295074 -0.121933 -0.0602071 0.248696 -0.0781499 -0.320842 0.0324332 0.320331 0.679838 0.199986 -0.00943796 -0.248741 -0.398164 0.05559 -0.0750231 0.0796473 0.874132 0.250398 0.0207552 0.000185975 0.0285173 -0.00868364 0.00444526 0.338385 0.366879 0.0062375 0.409369 0.212404 0.208414 0.293903 0.1244 -0.21422 -0.286288 0.0102624 0.439376 0.5514 0.096714 -0.283509 0.30632
2825 -0.186193 0.0108795 -0.282779 0.0319692 0.142803 0.233504 -0.103991 -0.111109 0.15242 0.39598 0.310153 -0.0638285 -0.156009 -0.149842 0.00056203 -0.0755236 0.0346902 0.0779003 0.243298 -0.0576772 0.197089 -0.155728 0.0474873 0.0177856 0.0949 0.642765 2.12654e-05 0.204935 0.296874 0.282079 -0.36996 0.169167 0.402875 0.41154 -0.427818 -0.208113 -0.153065 0.270315 -0.0229532 0.0535713 -0.013205 0.278399 0.265976 0.313662 0.601513 0.373699 -0.0508302 0.350376 -0.24156 0.0717735 -0.171972 0.138102 0.0453425 0.565304 -0.0556866 0.0883521 -0.0794031 -0.233063 0.0802375 -0.0947166 0.444588 0.118981 0.0941103 0.0199019 -1.03748 -0.466512 0.0877124 0.259248 0.0367599 0.10689 0.17174 -0.269846 0.406216 0.118345 0.491273 0.532864 0.0296442 -0.180942 0.0525396 0.403259 0.189743 0.120694 -0.542422 0.490916 0.824497 -0.370539 -0.362893 -0.840485 -0.391783 0.364356 -0.0054521 0.0804608 0.246248 -0.176389 -0.243021 -0.0872767 0.283985 0.88703 0.103782 -0.00427205 -0.357524 -0.497174 -0.0328213 -0.129056 0.0655887 1.06869 0.169317 -0.133435 0.0858363 0.152969 0.0253368 -0.0133476 0.333588 0.416585 -0.102872 0.48446 0.322653 0.20484 0.388504 0.263078 -0.20972 -0.156719 0.00744909 0.515625 0.434105 0.121266 -0.354535 0.374729
706 -0.11303 0.101058 -0.197438 0.0896882 0.0917543 0.177481 -0.0648321 -0.069861 0.0683621 0.127533 0.226206 -0.0218681 -0.0644758 -0.0721344 0.00121629 -0.167945 0.0394542 0.12368 0.177161 0.00637139 0.19314 -0.0341317 0.0263699 -0.0348962 0.235935 0.524366 -0.0432158 0.139005 0.326301 0.247578 -0.283634 0.169093 0.356287 0.356168 -0.270019 -0.214386 -0.192606 0.386876 -0.0450255 0.167579 -0.174777 0.0916187 0.270433 0.164017 0.552651 0.303149 0.011203 0.31891 -0.14505 0.122936 -0.139061 0.122693 0.155989 0.461037 0.0133952 0.267169 -0.0708453 -0.170837 0.116625 -0.0833397 0.576501 0.0776551 0.124744 0.101337 -0.92271 -0.444982 0.0623651 0.170504 0.145525 0.0206242 0.132928 -0.423863 0.395047 -0.0588962 0.353798 0.52893 0.089815 -0.0612761 0.147927 0.308865 0.339502 0.0771537 -0.505138 0.360667 0.713192 -0.282361 -0.286265 -0.607623 -0.458123 0.412875 -0.0243972 -0.0430624 0.28185 -0.0503243 -0.242115 0.0208814 0.293772 0.556218 0.202713 -0.0965164 -0.318079 -0.474632 0.0156987 -0.0948791 0.107038 0.982127 0.00267354 0.00219274 0.00839006 0.137101 -0.0702209 0.0368763 0.30204 0.330699 -0.0939484 0.36214 0.155436 0.102578 0.21651 0.159757 -0.232012 -0.251369 0.00466071 0.360895 0.447592 0.135183 -0.366971 0.346518
331 -0.00225135 0.0288219 0.0383731 -0.000900353 -0.0189645 -0.0220503 -0.0537296 -0.0697106 0.234272 0.0812048 -0.0356802 -0.0649865 0.130305 -0.0213381 0.0160521 -0.131632 -0.0679805 -0.0138368 -0.0289696 -0.0807296 0.252874 -0.011459 0.0459981 0.0496565 0.392046 0.355566 -0.153299 0.00371951 0.170903 0.153852 -0.124002 0.0602579 0.270008 0.220646 -0.230612 -0.129321 -0.334056 0.590062 0.0367917 0.25735 -0.280277 0.00299041 0.301208 0.226507 0.459945 0.130752 0.0488864 0.267599 -0.427622 -0.0108979 -0.219017 0.16191 0.187986 0.401255 0.18812 0.494781 -0.0176397 0.121819 0.443263 -0.0814932 0.949425 -0.00241398 0.257785 0.39747 -0.817433 -0.241163 0.266027 0.127662 0.27346 0.13323 0.224178 -0.470298 0.35821 -0.167399 0.174816 0.415372 -0.176711 -0.0989161 0.15444 0.298102 0.143431 -0.259463 -0.204137 0.356368 0.597074 -0.231484 -0.301878 -0.617635 -0.431833 0.132657 0.0751926 -0.288918 0.29216 -0.0012584 -0.180056 0.125229 0.313279 0.286639 0.444823 -0.185783 -0.463981 -0.540262 0.160147 -0.131909 0.225127 0.989195 0.0954215 0.182877 0.0899043 0.0458643 -0.273222 0.0145083 0.286344 0.257524 0.0174039 0.437898 0.102963 0.0416298 0.0768062 0.0775378 -0.183407 -0.394073 0.00809228 0.160458 0.32392 0.244141 -0.198042 0.244307
314 0.0229716 -0.100168 0.0139597 0.0116382 -0.0202728 0.0730033 0.0561516 0.0360337 0.184336 0.0769484 -0.0336625 0.0052132 0.0194489 -0.0607754 0.0469886 -0.0268552 -0.17424 0.0212058 0.0314735 -0.0174921 0.232571 -0.0917916 0.087948 0.048002 0.564154 0.519388 -0.314879 -0.0632796 0.397531 0.351577 -0.308716 0.124149 0.27217 0.414443 -0.480724 -0.148205 -0.250466 0.422131 0.160956 0.338235 -0.285991 -0.0301179 0.420839 0.376232 0.569242 0.0366876 0.146434 0.312876 -0.671956 -0.187818 -0.132756 0.0240913 0.191775 0.327831 0.214879 0.462655 -0.090383 0.329315 0.383368 -0.053758 0.608442 -0.0615576 0.302594 0.420838 -0.556779 -0.228612 0.328124 0.0895964 0.0826849 0.169003 0.206568 -0.218775 0.334587 -0.125909 0.118049 0.414347 -0.283448 -0.178226 0.0345641 0.277354 0.193848 -0.365251 -0.156056 0.420685 0.610386 -0.272866 -0.533003 -0.741644 -0.51377 0.0476709 -0.0421159 -0.33103 0.244204 -0.0231091 -0.302241 0.0711059 0.373706 0.83182 0.271884 -0.0250755 -0.473787 -0.441288 0.234783 -0.132869 -0.0233848 0.912377 0.368801 0.204875 0.0828714 -0.0804063 -0.234116 -0.0275673 0.51208 0.509325 0.248184 0.729927 0.19939 0.251592 0.201489 0.0598715 -0.25692 -0.647726 -0.0719959 0.247543 0.598051 0.179583 -0.316911 0.344345
333 0.0223287 -0.0356195 -0.0335198 0.140472 -0.0678681 0.0853046 -0.0090488 -0.102593 0.301799 -0.0114122 -0.0220595 -0.100799 0.0139616 -0.0672143 0.102729 -0.0846496 -0.0640016 0.0790224 0.144637 0.104084 0.356766 -0.0627131 0.129523 -0.0340015 0.261769 0.495281 -0.0875773 0.112562 0.169859 0.183568 -0.206119 0.127493 0.159132 0.173558 -0.147969 -0.0783179 -0.233523 0.524582 0.151751 0.340787 -0.251891 -0.0487048 0.0630469 0.150823 0.487129 0.229307 0.0674294 0.566513 -0.645623 -0.138149 -0.115921 0.184637 0.373588 0.354413 0.110677 0.520503 -0.0946338 0.0847748 -0.0109051 -0.0123582 0.629357 -0.0583916 0.264969 0.336623 -0.783941 -0.265967 0.0790392 0.11216 -0.0461637 -0.203178 0.185149 -0.281593 0.247391 -0.107259 0.282756 0.377135 -0.0178371 -0.10602 0.0834842 0.480636 0.398071 -0.350676 -0.187916 0.34716 0.397817 -0.0828463 -0.366229 -0.453162 -0.647668 0.1723 -0.224077 -0.176959 0.238143 -0.191875 -0.480515 0.17595 0.419794 0.658795 0.35129 -0.0322955 -0.229716 -0.399253 -0.0123613 -0.0946486 -0.0158543 1.45728 0.154093 0.120876 -0.0474992 -0.031142 -0.178423 0.113305 0.187973 0.43336 0.0702734 0.553926 0.199582 0.249953 0.193033 0.100285 -0.26834 -0.367097 0.00273145 0.460355 0.727671 0.101416 -0.32023 0.389203
2834 0.0295256 -0.0110457 -0.000615901 0.112936 -0.0988185 -0.115127 -0.147658 -0.199179 0.355106 -0.0326974 -0.0211684 -0.0487982 -0.0283091 -0.12851 0.0908577 -0.0947612 0.000202166 0.152167 0.0108854 0.110647 0.499583 -0.0748046 0.195986 0.010003 0.337004 0.516166 -0.127576 0.0247967 0.133162 0.0158346 -0.248922 0.111267 0.208306 0.248179 0.0233436 0.0491949 -0.303191 0.621666 0.1534 0.496466 -0.299157 -0.119771 0.0833645 0.0947245 0.598481 0.190235 0.0655406 0.558681 -0.517471 -0.101255 -0.255729 0.256736 0.520263 0.521514 0.17936 0.762138 -0.226396 0.148367 -0.105109 -0.115837 0.739169 -0.0823024 0.336585 0.262996 -0.769747 -0.283303 0.0982056 0.143055 0.0219079 -0.403694 0.130287 -0.239357 0.213689 -0.0703918 0.0150078 0.213038 0.126812 -0.0766223 0.0309054 0.396807 0.540412 -0.355028 -0.248125 0.367788 0.460023 -0.0887253 -0.200053 -0.305336 -0.634475 0.213457 -0.116688 -0.229181 0.382194 -0.0953041 -0.589328 0.144446 0.270617 0.739274 0.246692 -0.110967 -0.216773 -0.322783 -0.155571 -0.143369 -0.241238 1.69781 -0.0545192 0.0733497 -0.0193494 -0.0673066 -0.380463 0.194937 -0.00207473 0.213204 0.0546734 0.501306 0.193118 0.250461 0.193933 0.0616522 -0.386131 -0.478017 -0.0209685 0.321038 0.583606 0.032471 -0.429626 0.432402
1050 -0.00902458 -0.0191337 -0.129353 0.192322 -0.11633 0.186189 -0.094677 -0.175486 0.493192 0.011935 -0.093357 -0.0495922 0.0278491 -0.128317 0.123608 -0.136249 -0.0183305 0.14758 0.0489433 0.150692 0.420089 -0.113138 0.109878 -0.0214976 0.351367 0.508602 -0.0287408 -0.0116635 0.23799 0.205369 -0.190496 0.148825 0.182116 0.387843 -0.11883 0.0091478 -0.304552 0.468463 0.0892264 0.449428 -0.365828 -0.172974 0.0616556 0.0792376 0.445947 0.21639 0.0716957 0.554295 -0.542837 -0.124969 -0.139855 0.0864299 0.357313 0.410297 0.145158 0.531191 -0.191345 0.211517 -0.0691995 -0.0708254 0.638244 0.0123559 0.245954 0.191472 -0.906477 -0.301874 0.0740232 0.0468651 -0.0182576 -0.216666 0.124813 -0.0928661 0.209273 -0.140293 0.00627781 0.281326 0.0920802 -0.0986465 -0.065144 0.265666 0.500342 -0.298879 -0.170325 0.124116 0.314745 -0.0929294 -0.2001 -0.399411 -0.548807 0.214253 -0.0906823 -0.14168 0.341588 -0.20822 -0.455944 0.113635 0.237343 0.674608 0.0219338 -0.103892 -0.100745 -0.254684 -0.0760155 -0.168318 -0.20789 1.57979 -0.0831918 0.143482 -0.0349763 -0.0188892 -0.213557 0.115948 0.162119 0.169381 0.0260657 0.495868 0.204233 0.348483 0.269673 0.035483 -0.396166 -0.612224 -0.0285575 0.357796 0.616259 0.117664 -0.357287 0.400609
3017 -0.0279347 -0.0876422 -0.199321 0.232741 -0.0523637 0.204524 -0.10401 -0.148328 0.525782 -0.0147253 -0.176626 -0.0811889 0.0182129 -0.124012 0.0998407 -0.160504 -0.000373671 0.176172 0.147429 0.25473 0.481844 -0.134174 0.107946 -0.0530487 0.353705 0.5359 0.017786 -0.000805398 0.327394 0.28494 -0.257768 0.231237 0.11934 0.511378 -0.106106 0.0328557 -0.331791 0.445564 0.0739938 0.513494 -0.420304 -0.200104 0.0141228 0.0567189 0.412456 0.259245 0.0444014 0.577058 -0.535692 -0.202301 -0.085957 0.0491502 0.304166 0.337773 0.126386 0.49722 -0.154407 0.256664 0.00693597 -0.118143 0.744411 0.0931801 0.246608 0.273472 -1.13095 -0.314373 0.025904 0.0758081 -0.0241341 -0.0972587 0.101517 -0.110359 0.233422 -0.21925 0.124325 0.417167 0.152152 -0.0984637 0.010396 0.317243 0.575021 -0.246985 -0.242764 0.111039 0.331173 -0.0694938 -0.25867 -0.421163 -0.595207 0.199167 -0.202007 -0.0735987 0.34784 -0.256012 -0.438086 0.113479 0.207437 0.721297 0.0169769 -0.144732 -0.116435 -0.270689 -0.0541188 -0.205437 -0.298457 1.76203 -0.0499979 0.187037 -0.0732315 0.0443411 -0.123037 0.0831134 0.149095 0.142614 -0.0514086 0.548841 0.218443 0.445081 0.3129 0.0130676 -0.394659 -0.594664 -0.0566956 0.413762 0.751326 0.156656 -0.374131 0.435713
341 0.0271852 -0.117411 -0.0777826 0.0465381 -0.14796 -0.0458394 -0.0656052 -0.149124 0.303733 0.0178162 -0.0217594 -0.00230264 -0.0555991 -0.0435861 0.0614593 -0.0314096 -0.0873802 0.0942061 0.080516 0.10576 0.304774 -0.113214 0.179655 -0.000848425 0.250863 0.477246 -0.157075 0.0549948 0.203534 0.168535 -0.241357 0.122206 0.179323 0.264506 -0.206777 -0.0520926 -0.284544 0.619239 0.209603 0.449236 -0.322426 -0.0722136 0.22358 0.253387 0.597099 0.18897 0.0522311 0.520258 -0.652224 -0.162205 -0.136691 0.116346 0.323058 0.389136 0.160142 0.521113 -0.132413 0.157719 0.0543811 -0.059414 0.646216 -0.0422081 0.276693 0.289376 -0.624152 -0.212293 0.142358 0.101124 -0.0616348 -0.217318 0.183265 -0.205016 0.193375 -0.112162 0.0746717 0.2084 0.00452587 -0.100378 -0.0313873 0.271285 0.352232 -0.337445 -0.175576 0.306664 0.363592 -0.102546 -0.268497 -0.475867 -0.559529 0.0975619 -0.0479253 -0.208627 0.301221 -0.165786 -0.338893 0.105998 0.284309 0.681865 0.240769 -0.11623 -0.320735 -0.303774 -0.0192564 -0.0990405 -0.0488637 1.16296 0.109486 0.0870161 0.0170293 -0.047671 -0.235997 0.0798846 0.20387 0.272091 0.119644 0.466387 0.226937 0.144191 0.119454 0.0536059 -0.27433 -0.485727 -0.0342358 0.254486 0.461515 0.140534 -0.243926 0.264602
205 0.0384455 -0.0927503 -0.0103404 -0.00121154 -0.116692 -0.00388736 0.0424981 0.00438886 0.0513146 0.0315328 0.0574285 0.10589 -0.0612786 -0.0263332 -0.00198288 0.010233 -0.0979193 0.0948153 0.0380623 0.0918399 0.219969 -0.0481003 0.111169 0.00602851 0.462914 0.442638 -0.290503 0.0384343 0.441988 0.306953 -0.331759 0.215606 0.197115 0.296526 -0.127584 -0.243285 -0.193209 0.483807 0.0621345 0.330094 -0.306667 0.00463297 0.337291 0.281504 0.751721 0.0414183 0.0579004 0.255617 -0.388639 0.059039 -0.137958 0.00644393 0.146486 0.212827 0.188477 0.381843 0.0982041 0.102259 0.202808 -0.00841212 0.263804 0.0303135 0.105069 0.201365 -0.21881 -0.223545 0.109643 0.0574727 0.216422 0.176325 -0.0226421 -0.346052 0.441058 -0.170957 0.0920568 0.150472 -0.0947784 -0.0436512 0.213497 0.230653 0.448332 -0.062594 -0.346633 0.426051 0.590039 -0.186925 -0.36396 -0.443084 -0.496062 0.224164 0.0451632 -0.0571911 0.187835 -0.0142223 -0.140903 0.0835604 0.173758 0.72846 0.452088 -0.154404 -0.581015 -0.449584 0.0759691 -0.0930792 -0.0451466 0.777483 0.12108 0.186771 -0.0368234 -0.0116207 -0.250934 -0.0527711 0.392165 0.365566 -0.0950223 0.264146 0.0620579 0.117677 0.0664754 0.0504602 -0.254378 -0.546911 -0.167838 0.146413 0.487241 0.263823 -0.265057 0.276654
2491 0.119655 0.295515 0.0351766 -0.14885 -0.115765 0.290124 0.199851 0.0183079 0.0876091 -0.0421357 -0.170932 -0.026312 0.109841 0.00375897 0.0370497 0.126671 -0.156042 0.0969917 -0.251544 -0.0712937 0.0670202 -0.174185 0.0844475 -0.118589 0.479681 0.128415 -0.250876 -0.00660571 0.567467 0.299793 -0.326491 0.34173 0.0641497 0.254288 -0.225927 -0.137717 -0.0903749 0.322208 -0.0711876 0.556716 -0.273599 -0.178022 0.411651 0.301625 0.760896 -0.0325501 0.0737254 0.15627 -0.4465 0.135262 -0.1798 -0.0107191 0.299637 0.308572 0.197798 0.592574 0.28409 0.0398681 0.372549 0.0498778 0.628486 0.267266 0.189979 0.272306 -0.190706 -0.432334 -0.0922399 -0.0295153 0.263496 0.203879 -0.125912 -0.523977 0.763794 -0.205912 0.110576 0.454658 0.0866635 -0.0677393 0.456924 0.414957 0.818397 0.135474 -0.319123 0.462152 0.458905 -0.234091 -0.190219 -0.220493 -0.402901 0.362332 0.0956599 0.0725849 0.420498 0.107757 -0.0441022 -0.0106847 0.230763 0.715656 0.724738 -0.474102 -0.868217 -0.525444 0.0240203 -0.276326 -0.250173 0.551071 0.119491 0.324858 -0.00520093 0.158659 -0.259369 0.0528125 0.299814 0.0649627 -0.405034 0.0072547 -0.168234 0.31368 0.191428 -0.213153 -0.410034 -0.560318 -0.222943 -0.0041243 0.336669 0.332137 -0.325844 0.212906
217 0.0112779 -0.224799 0.109255 -0.0252085 0.0495892 0.0261306 0.0108871 0.130691 -0.130699 0.134127 -0.0697946 0.0320417 0.115159 -0.0964519 0.107139 0.0659655 -0.214335 0.0636124 -0.00609583 -0.0297817 0.31028 -0.109677 0.280219 -0.111495 0.596001 0.340044 -0.329834 -0.00661902 0.566147 0.203983 -0.442939 0.274788 0.162953 0.208945 -0.288437 -0.249457 -0.165806 0.430848 -0.011999 0.467976 -0.382259 -0.190664 0.316501 0.366215 0.744669 -0.181244 -0.0827451 0.0945926 -0.403304 -0.0548533 -0.214242 -0.101006 0.259501 0.414448 0.270203 0.367815 0.186088 0.122712 0.346462 -0.0196427 0.798862 0.137429 0.181425 0.306404 -0.363873 -0.253002 0.151214 0.0417381 0.332515 0.461328 0.012203 -0.385438 0.777986 -0.422738 0.0040732 0.268195 -0.115744 -0.304031 0.276979 0.456321 0.576418 -0.0973199 -0.175817 0.439017 0.434936 -0.384321 -0.283682 -0.558219 -0.147509 0.0483847 -0.0300436 -0.117086 0.225799 0.0274459 -0.0926799 0.0400923 0.175097 0.94831 0.843414 -0.435844 -1.00476 -0.476819 -0.0245062 -0.210041 -0.238952 0.821817 -0.00317582 0.258289 -0.085472 0.0387385 -0.081193 -0.101623 0.279578 0.154509 -0.151119 0.132091 0.0554531 0.0968469 0.074022 -0.0176528 -0.218506 -0.462577 -0.238396 -0.0563163 0.187923 0.347665 -0.207398 0.218985
757 0.105358 0.0130025 -0.152791 0.0382843 -0.102517 0.18269 0.081385 0.064875 0.168865 -0.098475 -0.149251 0.00201454 0.0690396 -0.00705944 0.0860549 -0.0331495 -0.146713 0.0199769 -0.0222248 -0.115296 0.326656 -0.0181187 0.113609 -0.16264 0.631395 0.452801 -0.308528 -0.0507935 0.606447 0.214255 -0.388263 0.338931 0.15393 0.363057 -0.0637482 -0.276824 -0.374617 0.438233 -0.17926 0.467762 -0.280391 -0.206792 0.275213 0.0940508 0.922748 -0.0395175 -0.129714 0.0460577 -0.30557 0.193521 -0.118807 0.0687903 0.341737 0.463497 0.261206 0.458552 4.50104e-06 0.039994 0.245199 0.195193 0.543421 0.179216 0.199981 0.200992 -0.338568 -0.337027 -0.0309964 0.0632964 0.285877 0.180075 0.0137195 -0.413087 0.478652 -0.223727 -0.150372 0.172873 0.124049 -0.135382 0.245829 0.124048 0.529938 0.0787306 -0.447513 0.492839 0.751484 -0.178597 -0.253716 -0.81697 -0.426024 0.203387 -0.0642602 -0.025517 0.461539 0.114688 -0.225963 0.0235978 0.0912548 0.868883 0.734371 -0.367836 -1.1247 -0.621935 -0.0867511 -0.277439 -0.107947 0.764844 0.0739817 0.297515 -0.0706612 0.114686 -0.21646 0.0123988 0.124089 -0.133485 -0.336111 0.0343894 0.0295506 0.16882 0.0846533 -0.181301 -0.310367 -0.533413 -0.325802 -0.0402855 0.607629 0.371138 -0.385683 0.193743
886 0.0585643 -0.190515 0.0358106 0.135152 -0.0233583 -0.0920479 0.0688131 0.0603337 -0.163739 -0.10228 0.0509782 -0.0608978 0.308274 -0.10238 0.0610673 0.0607601 -0.34967 -0.0614939 -0.0572365 -0.1271 0.200597 -0.081054 -0.0494224 -0.00282735 0.319301 0.255004 -0.302056 -0.0929249 0.591481 0.160139 -0.345846 0.420715 -0.216646 0.297635 -0.463946 -0.217543 -0.0956271 -0.0430718 0.135037 0.391861 -0.224292 -0.276225 0.263666 0.109378 0.419742 0.0406811 0.0420555 -0.0397593 -0.380778 -0.257291 -0.164553 -0.00574563 0.126593 0.206748 0.0785775 0.448259 0.428683 0.253986 0.311961 0.186378 0.640885 0.215824 0.141635 0.446389 -0.713162 -0.0299646 0.0680135 0.37127 0.301626 0.472631 0.377633 -0.365389 0.605556 -0.677579 -0.0398275 0.366285 0.0974561 -0.396715 0.3931 0.148691 0.353503 0.144006 -0.190298 0.366703 0.420288 -0.269138 -0.306684 -0.824075 -0.482402 -0.115846 -0.262579 -0.302031 0.506901 0.00577905 -0.369563 -0.111727 0.383839 1.44289 0.511506 -0.392274 -1.08689 -0.377812 -0.233836 -0.283786 -0.336314 0.393815 0.116771 0.145933 -0.0474561 0.145706 0.0124088 -0.143536 0.296497 0.424008 -0.0939463 0.366291 0.172926 0.306681 -0.0948226 -0.299014 -0.241005 -0.322207 -0.335083 -0.164655 0.574152 0.0598934 -0.449489 0.0347909
3208 0.0633721 -0.144167 0.025835 0.140001 0.0238754 -0.0430251 0.0449674 0.0195836 -0.114115 -0.107815 0.0537809 -0.0941528 0.297321 -0.0333995 0.0450641 0.0140654 -0.305228 -0.0235035 0.0139811 -0.0260498 0.215167 -0.101717 -0.0251436 -0.0168307 0.192303 0.0771077 -0.244832 -0.103306 0.520494 0.159433 -0.333268 0.376867 -0.233452 0.34275 -0.544853 -0.175035 -0.123349 -0.031808 0.1514 0.408749 -0.202729 -0.327227 0.21423 0.0663168 0.190997 0.111074 0.039284 -0.063199 -0.302495 -0.220859 -0.145096 0.0152811 0.107929 0.124076 0.0654659 0.345012 0.429146 0.23473 0.329682 0.128146 0.658995 0.231122 0.114016 0.383738 -0.70712 0.0514531 0.0131662 0.387013 0.287544 0.482853 0.382439 -0.373841 0.510504 -0.620342 0.0533 0.39957 0.105251 -0.340834 0.306465 0.149823 0.316044 0.138401 -0.222078 0.291318 0.332492 -0.224663 -0.234601 -0.671989 -0.409814 -0.120061 -0.2499 -0.279583 0.424989 -0.0507812 -0.245972 -0.114792 0.330359 1.13428 0.465841 -0.361175 -0.983347 -0.304535 -0.270902 -0.182137 -0.243887 0.376137 0.156 0.121927 -0.052768 0.212981 0.0207033 -0.177987 0.225207 0.332428 -0.0685012 0.293046 0.135073 0.307996 -0.149103 -0.264933 -0.181237 -0.158034 -0.249735 -0.0721363 0.671527 0.0898006 -0.404075 0.0821534
869 0.112943 -0.163525 0.0757421 0.165681 0.0247818 -0.0173087 0.0885141 0.0492553 -0.11058 -0.108526 0.0656845 -0.0959863 0.321145 -0.0764301 0.0869408 0.0429738 -0.332187 -0.0329573 0.0540457 -0.0438446 0.231103 -0.0628399 -0.0245407 -0.01981 0.164624 0.0359945 -0.20738 -0.0836244 0.526037 0.198413 -0.306316 0.391369 -0.272024 0.336691 -0.577486 -0.184433 -0.112221 -0.0598142 0.153 0.393544 -0.151558 -0.321453 0.218285 0.0490025 0.12421 0.128652 0.0330173 -0.0528295 -0.262441 -0.250127 -0.166968 0.0400396 0.129675 0.131628 0.0242246 0.361452 0.461481 0.258261 0.349711 0.13901 0.789643 0.2336 0.126202 0.454864 -0.796919 0.00687958 -0.00505738 0.448707 0.319379 0.545071 0.428368 -0.41696 0.534894 -0.67379 0.0872596 0.530948 0.0552388 -0.4029 0.345611 0.192289 0.305459 0.152108 -0.257616 0.362375 0.417647 -0.248919 -0.303296 -0.73134 -0.421042 -0.122478 -0.358954 -0.333185 0.436186 -0.0506754 -0.328247 -0.111222 0.387636 1.26416 0.535912 -0.353465 -1.06254 -0.370557 -0.296345 -0.191452 -0.264122 0.423587 0.17211 0.143403 -0.0615098 0.170625 0.0684754 -0.188751 0.203556 0.327149 -0.107038 0.334974 0.163638 0.3757 -0.143275 -0.269778 -0.180954 -0.14248 -0.263485 -0.0291881 0.821138 0.10983 -0.491702 0.123935
2693 0.059404 -0.21611 0.0551222 0.115618 -0.0205419 -0.121288 0.141735 0.0562051 0.0319835 -0.0683058 0.251833 -0.0197174 0.137305 -0.216273 0.118843 0.12082 -0.210091 -0.114281 -0.00321837 -0.106736 0.300978 -0.113943 -0.0450509 -0.0781762 0.399706 0.392594 -0.373803 -0.0120606 0.611045 0.146319 -0.345369 0.354636 -0.0379374 0.160394 -0.308347 -0.294798 -0.0897774 0.242129 0.14612 0.353735 -0.185599 -0.0995024 0.230077 0.067716 0.439265 0.11823 0.0877657 -0.0205402 -0.194753 -0.203193 -0.173494 -0.0170959 0.119385 0.186925 0.175833 0.395361 0.462183 0.108239 0.161158 0.150303 0.504826 0.223934 0.0998076 0.266766 -0.495927 -0.0392915 0.0581103 0.366688 0.308364 0.330955 0.21294 -0.403197 0.634335 -0.505282 0.0093497 0.397653 0.198163 -0.339665 0.440088 0.158331 0.42295 0.152015 -0.278557 0.532185 0.391535 -0.357723 -0.291457 -0.774151 -0.483263 0.0523675 -0.161515 -0.304182 0.714858 0.102554 -0.487348 -0.0529961 0.366385 1.3137 0.449368 -0.423563 -1.04034 -0.504843 -0.197612 -0.341737 -0.314457 0.475553 -0.0796009 0.00989622 -0.00742579 0.111223 -0.0520077 -0.0403529 0.169712 0.342182 -0.00438473 0.326986 0.150215 0.164352 -0.0719208 -0.227825 -0.308814 -0.216386 -0.268139 -0.209331 0.113641 -0.0558349 -0.261581 -0.096334
3207 0.00141753 -0.183579 -0.0212063 0.137524 0.0709567 0.00493745 0.0080506 0.0469438 -0.116429 -0.0792078 -0.00103205 -0.119683 0.329357 -0.0799598 0.0522745 0.00566622 -0.346254 -0.0641822 -0.0680715 -0.192692 0.125609 -0.0484257 -0.0613219 0.0257156 0.274101 0.223937 -0.192773 -0.162992 0.517025 0.148749 -0.303505 0.405667 -0.26547 0.317699 -0.417127 -0.144106 -0.106878 -0.139156 0.090675 0.400085 -0.227337 -0.264076 0.214491 0.0687077 0.325458 0.0531529 0.00866249 -0.0662019 -0.322104 -0.23715 -0.184696 0.0521327 0.137839 0.261254 0.003938 0.444891 0.362532 0.222868 0.381684 0.130115 0.774757 0.224383 0.166295 0.506165 -0.908303 -0.0373079 0.0901897 0.386125 0.29611 0.494224 0.417464 -0.331079 0.553947 -0.630941 -0.0290041 0.435553 0.0748765 -0.388209 0.374022 0.10811 0.32089 0.182182 -0.236414 0.296057 0.467917 -0.204823 -0.277023 -0.851901 -0.444423 -0.14427 -0.330139 -0.260329 0.439278 0.0212478 -0.290394 -0.135923 0.307413 1.37706 0.437502 -0.389056 -0.943863 -0.25258 -0.239127 -0.259305 -0.286292 0.312353 0.125667 0.114129 -0.0628697 0.145252 0.0371215 -0.146526 0.258987 0.314739 -0.123173 0.334134 0.232597 0.332668 -0.0524664 -0.302458 -0.177274 -0.27048 -0.308871 -0.0944218 0.762488 0.0696663 -0.555259 0.127985
2998 0.199636 0.0259891 -0.0857032 0.0583122 -0.0170732 0.0753939 0.00784169 -0.0171886 0.0565588 -0.174511 0.000107322 -0.0613966 0.0729415 0.000511996 0.083333 -0.0075429 -0.240388 0.0270063 0.114502 0.160063 0.245838 -0.0207156 -0.00579488 -0.0636589 0.0310688 -0.140633 -0.149271 0.0466445 0.479716 0.261051 -0.27493 0.32166 -0.243801 0.380008 -0.535931 -0.167223 -0.141381 0.0607033 0.121855 0.357605 -0.157479 -0.313759 0.266599 0.00809552 0.0422053 0.274595 0.010656 0.066137 -0.251759 -0.236828 -0.0432759 0.0842602 0.127864 0.0711927 0.0161809 0.270878 0.381974 0.259796 0.295274 0.157456 0.71094 0.176828 0.101141 0.467796 -0.76554 -0.0947845 -0.0615561 0.512547 0.359668 0.532121 0.455671 -0.635722 0.524241 -0.716717 0.304354 0.810208 0.0212734 -0.292844 0.305918 0.203712 0.409308 0.104974 -0.374416 0.357625 0.466072 -0.214847 -0.386309 -0.619936 -0.450103 0.0316272 -0.383316 -0.360808 0.368568 -0.0889787 -0.353386 -0.0612009 0.427876 1.08218 0.519266 -0.193565 -1.03107 -0.465318 -0.213224 -0.0357044 -0.132095 0.793168 0.189989 0.247813 -0.102524 0.174812 0.0310151 -0.276995 0.241936 0.414583 -0.0533056 0.285864 0.0829349 0.335039 -0.156096 -0.187934 -0.0700238 -0.0271334 -0.170326 0.20982 1.02902 0.19026 -0.515338 0.260985
1096 0.142356 0.0192503 0.0849625 0.0816472 0.0414916 0.157158 0.121971 -0.0281351 0.142614 0.00409904 0.120562 -0.12182 0.0276393 -0.149444 0.0347262 -0.0559049 -0.215546 0.100607 0.0692071 0.0640338 0.0581169 -0.093389 -0.0776794 0.0612981 -0.00464467 -0.1017 -0.17255 0.0583545 0.378742 0.265514 -0.147102 0.263635 -0.0924033 0.351938 -0.365253 -0.149421 -0.0555361 0.116278 0.135509 0.181791 -0.100835 -0.211911 0.195649 -0.00977191 -0.094677 0.212085 -0.0279633 0.122545 -0.223867 -0.176675 -0.0788332 0.0248703 0.0980183 -0.0210833 0.025407 0.089003 0.330513 0.0916487 0.259248 0.162385 0.831727 0.153833 0.268286 0.473043 -0.737217 -0.138102 -0.063364 0.364309 0.21691 0.502516 0.361424 -0.587734 0.628069 -0.486541 0.387944 0.688902 -0.111193 -0.282189 0.376967 0.470008 0.381131 0.0336898 -0.221768 0.486266 0.43709 -0.267041 -0.38886 -0.53984 -0.467308 0.080742 -0.388822 -0.347972 0.144463 -0.0891251 -0.247731 -0.0839118 0.530849 1.02947 0.674988 -0.222129 -0.795763 -0.476855 -0.0666712 -0.0111942 -0.056422 0.999854 0.338179 0.175679 -0.123749 0.152936 0.0540652 -0.173214 0.314616 0.567458 -0.00850711 0.345696 0.0517612 0.320515 -0.0385276 -0.116751 -0.0716665 -0.0415329 -0.0503651 0.214767 0.663476 0.193525 -0.283273 0.135817
1092 0.27257 0.109734 -0.0790913 0.2426 -0.0329351 0.0371555 0.0295749 0.0287858 0.00495974 -0.000432285 0.131752 -0.0931326 0.307276 -0.0523131 0.205803 0.0464367 -0.23961 -0.0305498 0.144464 0.119697 0.245596 -0.170282 0.0278159 -0.124923 -0.0535913 -0.0929492 -0.14433 0.0951719 0.544957 0.255962 -0.299109 0.328577 -0.0943326 0.327627 -0.653815 -0.0604406 -0.224134 0.0266596 0.0812357 0.33565 -0.145458 -0.386527 0.228734 0.0383089 -0.0574441 0.221708 -0.0697706 0.149685 -0.469282 -0.271412 0.0897806 0.0777849 0.115122 0.106234 0.0717886 0.295861 0.261979 0.181855 0.333549 0.128663 0.82826 0.208425 0.157814 0.53681 -0.948511 -0.154684 -0.00972855 0.439491 0.229345 0.310277 0.575858 -0.390139 0.551269 -0.580087 0.330461 0.848132 0.0301446 -0.334671 0.230101 0.301299 0.419612 -0.0563135 -0.203488 0.222952 0.238249 -0.248794 -0.252017 -0.40554 -0.340347 0.0661612 -0.455834 -0.384224 0.388329 -0.193424 -0.538133 -0.0216587 0.465776 1.05555 0.530541 -0.325176 -1.0563 -0.378765 -0.211522 -0.0109654 -0.110851 0.899382 0.299626 0.205637 -0.112452 0.224299 0.0490224 -0.220135 0.283035 0.365503 0.10197 0.403393 0.148343 0.346517 0.0697243 -0.113958 -0.115679 -0.160309 -0.125865 0.371263 0.713517 0.066504 -0.306014 0.0755676
871 0.245539 0.0662688 -0.1069 0.162185 -0.0193014 0.094539 -0.0283776 0.020492 0.00170502 -0.0285545 0.0800939 -0.133498 0.233697 -0.0208092 0.133753 -0.0295795 -0.197693 -0.034131 0.138934 0.166098 0.214871 -0.161983 0.0272101 -0.0964902 -0.11948 -0.194274 -0.110794 0.0644294 0.441568 0.21617 -0.207915 0.27912 -0.149945 0.283126 -0.609733 -0.0458049 -0.21546 0.0802522 0.111046 0.336346 -0.149054 -0.367124 0.264901 0.0498843 -0.076546 0.240393 -0.0528455 0.0902009 -0.400277 -0.279454 0.0763937 0.064724 0.0818007 0.118447 0.00926928 0.262495 0.281851 0.174783 0.352541 0.0768076 0.87034 0.208704 0.117126 0.538737 -0.875643 -0.0945898 -0.0233345 0.449652 0.265639 0.402434 0.560604 -0.457602 0.547386 -0.605448 0.359193 0.888119 0.0365703 -0.333357 0.245522 0.295773 0.364343 -0.0035111 -0.271121 0.281426 0.318678 -0.256621 -0.27687 -0.453228 -0.34159 0.0565496 -0.407393 -0.369804 0.378744 -0.207242 -0.459862 -0.0517579 0.416167 0.993222 0.542718 -0.299661 -1.03288 -0.401444 -0.224149 0.0101996 -0.113848 0.862584 0.302506 0.230046 -0.0851219 0.206137 0.0445768 -0.245097 0.265502 0.359205 0.0556415 0.377582 0.138856 0.356816 0.0481447 -0.124201 -0.113677 -0.148209 -0.140646 0.358223 0.845374 0.107157 -0.333187 0.0986361
538 0.0120545 0.0257786 -0.00627072 0.156436 -0.00217183 0.0763201 -0.0124956 0.0592674 -0.211729 0.0016916 0.107264 -0.028424 0.195135 0.0222949 0.0801152 -0.169216 0.020175 0.0111165 0.265626 0.0458123 0.00888408 -0.0615936 0.0153338 -0.109623 0.0298647 -0.112173 0.00991212 0.0642318 0.155067 0.199306 0.018155 -0.0343877 -0.170407 0.25304 -0.381012 -0.169006 -0.0228007 0.143607 0.14677 0.241829 -0.124717 -0.152945 0.35853 0.178548 -0.118696 0.167183 0.131917 0.0801775 -0.168817 -0.0614122 -0.120489 0.0764226 0.0260271 0.191445 -0.0933272 0.224263 0.1753 0.204265 0.21069 -0.00254275 0.664334 -0.0491519 -0.0196795 0.40462 -0.572181 -0.0693693 -0.150597 0.370473 0.248528 0.504122 0.465956 -0.500019 0.388917 -0.481446 0.449507 0.919763 -0.00311967 -0.239348 0.227587 0.245521 0.459611 0.161335 -0.491114 0.439113 0.478256 -0.191552 -0.28613 -0.68356 -0.330449 0.227076 -0.145908 -0.285624 0.398675 -0.136237 -0.232544 -0.0267548 0.194026 1.0063 0.515331 -0.123543 -0.879223 -0.467709 -0.12497 0.23357 0.060056 0.813211 0.424548 0.258496 0.0239605 0.057796 -0.0205836 -0.271032 0.315373 0.323506 -0.068326 0.260765 0.206568 0.420544 -0.0417349 -0.0569483 -0.0976254 -0.379556 0.0301451 0.2952 0.998334 0.213948 -0.356971 0.232459
2783 -0.129671 0.0088948 0.0452091 0.0185891 0.0726264 0.108 0.0990492 -0.146105 0.106619 0.00281729 -0.0959405 -0.0511629 0.0949642 -0.0164458 -0.146031 -0.250234 0.121309 -0.0917161 0.258386 0.0559252 0.182443 -0.0493752 0.0273712 -0.0304139 0.219259 -0.153328 0.0127093 0.0807542 0.132792 0.275078 -0.0319329 -0.0640636 -0.21927 0.252739 -0.291068 -0.216513 -0.150237 0.269852 0.170184 0.495943 -0.139961 -0.122279 0.421825 0.232178 0.284093 0.0394703 0.160095 -0.0313083 -0.3987 -0.0419443 -0.200636 0.101643 0.0122545 0.276954 -0.0657355 0.296199 0.13788 0.327349 0.182434 -0.0626136 0.761202 -0.0819304 -0.093764 0.414849 -0.81389 0.0921108 -0.262427 0.277756 0.189653 0.416659 0.426875 -0.262194 0.518927 -0.401009 0.432838 0.842959 -0.0136826 -0.214815 0.0983965 0.316286 0.442933 0.123745 -0.601595 0.47801 0.467692 -0.146723 -0.161289 -0.622173 -0.228653 0.275625 -0.0737067 -0.1129 0.44396 -0.0668584 -0.271128 -0.0589069 0.1287 1.1233 0.321642 -0.00858372 -0.618655 -0.401993 -0.176631 0.351334 0.18604 0.972419 0.571997 0.283312 0.19657 0.0145412 0.0679333 -0.306189 0.177186 0.195679 -0.118571 0.113877 0.192953 0.575678 -0.0461306 -0.148794 -0.238215 -0.460418 0.0604524 0.336925 1.0348 0.233866 -0.45728 0.22758
